63 7 21
-1.166738083709877 -0.12447858540063494 0.6112647873037659 -0.442847797399298 -0.7034142364976375 -2.429492190367311 -0.20680193466154362 0.48751115682186086 0.10549186063303673 0.5764487570554715 2.443843408509881 -0.33452840183724863 0.20995999994482717 0.4519749771720294 -0.15586151294209527 0.15541058687991494 1.0124590410170284 0.9417875177131569 0.9394244867157291 0.3034948312716814 -0.23431464882250985 0.13722429705010808 -0.06306974854012148 1.220417993676214 0.7550542337905113 2.003160645016618 0.18326371567427824 0.4837587302633306 -0.22963098631560286 -1.4360009820545028 0.5143241833462008 -0.1585158718412274 0.6298824310233535 -1.2856456435665349 1.4194625496843545 -0.11340039731833207 0.810002911741563 0.5741435861908184 2.0423811847096585 1.6426733597962184 0.5551884854017053 -0.45686113481882384 0.25317871844660733 -0.24906060366446858 1.1951093184814399 -0.27335381304623785 0.7691096632152401 1.4819101618405464 -0.2200507140162311 0.2018219979713025 -0.4239578828091365 1.10790639951114 0.5597561224864722 -0.3267574721072348 0.7082616503895945 0.26763794563847354 0.2800385646989576 1.4266919419552737 -0.21881729439485065 -1.1700535003365808 -0.25665207638679144 0.13173669555190215 1.5396938500308663 
0.5953708991341689 0.9665055117925467 -0.9157237071372697 -0.7819183207144353 -0.16590079492161658 1.7421956784440615 -0.6323000495166871 0.8315272596520957 0.11193076562046045 1.1901779291557848 0.01701484972802314 1.0999714181025921 -1.4969038545119489 3.341173737264249 -0.4712797598768176 1.403002789359471 1.0425933050213998 -0.026169337943993565 1.409407143081344 0.6614338516516529 2.007852595134864 0.4391225977838995 0.8898350161624484 0.5388034951353258 1.6106426179834739 0.7773533535552923 2.4273163859974143 1.4840824373512533 0.4942674731485731 0.9361441162546162 1.3294479974802353 2.162730828183844 1.1898942445992513 3.070636051973862 0.48164087008093603 -0.48826526774700796 0.4758888639556903 0.36124144502628674 0.3415656578938292 0.12397370652215611 0.4053278315081935 1.5196283607549774 0.07554387831339282 -0.08175064604707882 0.6193917194560917 1.1702248788214153 0.9550794132854145 0.08353050696393338 2.4481362763073613 0.5923812209055828 -1.0938607302025203 1.0994473786788612 1.2151750786718574 0.887428848954871 -1.59054394999478 3.229794004526341 0.1090976726718802 0.4952280410336899 -1.2129611963146831 0.26177446409760785 -1.0380147134069633 1.1263961788856736 -0.7217565006694342 
-1.2158237806024603 -0.9007388066257818 0.708167511720469 0.8303600477159089 1.4444711910308505 -0.725314177479147 2.481797516764842 -0.8981197008659947 2.4562584689194495 1.2672600618330772 0.09925344745024178 0.6491296178465096 0.4325778364559334 1.3779605041318088 1.3806359313716623 0.09312428731510058 1.4069309071557816 -0.25877273606176876 1.113397994878411 0.6956265793764957 0.8816847900943104 1.5085102354340472 0.890826567820608 -0.9002749385463713 1.1622054562973547 0.5006886143293438 0.4971328932514977 -0.21680026633902627 1.2623951796744601 -1.3466317744517327 -0.687184888540973 0.537446628143388 -0.07390107035500693 -0.7480860193340375 0.3633705407283586 1.4732128575264167 -0.4011178631082948 -0.09282468414412948 0.3150991308450144 0.024120409897219197 -0.4940272604572292 -0.5417855568763508 1.9336533834489176 -1.830067606743866 1.3446983311025082 0.5049491201907341 1.264154610012434 -0.3662568053884291 0.48353904397127145 -0.9285275759297187 0.06610897510354419 1.1207496376846442 1.9749553692712987 0.9799143674587729 -0.15797890685561322 1.760987543044407 -2.8645602851946412 -1.1249387652773755 -0.8644830766991545 0.7943937477472143 -0.07622109685539424 -0.5184496187420251 0.6429518460800543 
1.8573043654546453 1.5983096399423862 -0.918106280760496 -0.6402084591705852 0.7459459589048008 -2.4609879330694424 -0.30946492972389683 1.2416122286168205 0.09519351541736443 1.2126683722595843 0.6940021065661842 1.2382306978355933 2.631610665554346 -2.194919145290006 0.06669286422021281 1.0172133062995936 1.0383332561256884 0.069734427250435 1.4441907996606287 0.951482339870535 1.65302450240209 0.5658015447114693 1.0939634538278562 -0.7807132863588055 -0.42295216911066613 -0.20871038312781276 -0.55902883002294 3.738539310781735 0.3721575026728208 0.05096140557095419 -1.2375263375086214 -0.9860791187373434 -0.7202039611699216 -0.9284906157545463 3.3157369863544925 0.6636265462384796 0.6881266602714899 0.8305680312750136 -0.6569924479055644 0.8623578248332079 -0.606781997726102 2.8014984235416933 0.11003335853849461 -0.8118605332856061 1.053337477534418 1.8324816597860214 1.3775773786463874 -0.6072330634681955 1.1190983788567066 1.1763091010158178 -1.5202186352922287 1.4291671103257735 1.4372454299901167 1.7663587485775378 1.4889032781374527 -1.3363187333473614 0.6721522821389203 0.6945991388851831 -1.2171355399059482 -0.4227442731744746 -1.3333568705001522 -2.010937124237023 -0.2997919725651059 
2.3725404762725724 1.7110846549524958 -0.6335170685781915 0.6960695263532958 1.521379626524424 0.5966989051155465 2.706732796632136 1.666482228788536 -1.222980599288963 0.9519448036070521 0.12068268052080955 -0.12339542008691606 -1.285581808319082 0.2784272510723951 0.2903804835402517 0.7245815802291862 0.6026330151881933 -0.8466655685231985 2.1144645943874494 1.468612110693512 -3.3648614073473078 0.21721395105294217 0.8188926137889392 -0.4933776745738423 2.9468523115297187 0.7331608816069535 -0.11911931180968915 -1.1381122531032495 0.4847903779797673 2.0726732098209784 -0.479033565520667 2.7186290670590685 2.058068834322836 -0.8437189162338682 -0.3324766246465418 0.040082461101211275 0.18300319124352293 -0.16884173521845636 -0.021282210025006743 0.2712725161183861 -0.3396516375189844 -1.596724510561114 -0.2811860307434847 -0.12030806181264175 1.1742605303152018 1.058257229491585 -0.9711030781365154 0.019319024781094374 -3.4136487498078667 1.7029547432364098 -1.5935031473585726 0.9168803129185883 1.0132430720397574 0.8388498611329529 -2.9857374939965964 0.6739926266598026 1.2223254228244076 1.4387556865371782 -1.2252546030867881 2.0547947137327265 1.3579479695739383 0.43988170806105986 4.0765209420293935 
-0.480921585480097 0.3891826074410928 -1.6837140741364356 -1.0659734238121699 0.24949014589259644 0.9810115757271826 1.4322367372212317 -0.4537831782370776 -0.42716540048789087 0.7124502210901388 0.045946066774953054 0.9388765723997781 0.8074921024408259 -1.3517108678338214 -1.1768796927944647 0.8036644058659294 1.0298840262491358 0.33548461481411007 1.188033656774191 2.0620785462206324 -1.2800317261035006 -0.7639817737308526 0.5820994302769325 0.14514549892315443 0.8189289244026392 -0.34256173782520527 2.043952376029768 0.10063953146325422 -0.8433897084413836 0.05196264317526322 -0.9934191955328786 0.13748268191180735 -1.0349657434088835 0.7278754968293688 0.8564605811357363 -1.0945484814073658 -0.015620672112942158 0.47105032448772355 -0.01969239112745802 0.27804340230681956 1.4890884668540758 0.3097846471439404 -1.2630206610869226 0.6573316076051676 1.4143119368632302 0.672732531778882 1.0352196450289433 0.8518652669970962 -1.3533191501402224 0.4875730213123147 -0.027643888380395665 1.3921465179901409 1.4584453913338415 1.3471537948249932 0.29472204179996464 -0.25705608059068175 -0.9896984337768133 -1.2697988251210799 -0.7225098093431291 0.24767786252665935 -1.1742310754432985 -0.5947106608975239 -0.010230982388378607 
0.6487706757627674 0.06961246415645184 -0.6897737670924026 -1.3451156430240405 -0.36389277271190923 0.47820603515180127 1.9891688101596907 0.08575974674796605 0.40780248974424227 0.8046143099865928 -0.4850778169433999 1.446217424576398 0.08084210844167983 -0.2593970093537995 0.535516021552723 0.16327062279425653 0.04561129356497917 0.890367391401205 0.11109754114795711 0.6036459427179698 -0.09062096426300459 0.3437883269602042 0.12815757097406233 -0.8262003659831484 -0.27253492379674227 -1.0763610075333254 -0.20643127188201804 0.11904704518906228 0.37026427810290485 0.4932482089211434 0.24459882320056792 0.39707921903838383 -0.8669070918958535 0.3839766697147413 -0.5395226926089419 0.1896187199217163 -0.014140536888344601 -0.04403568063867036 0.34175563057600244 -0.41430838351434884 -0.8191470757987964 -0.45904123108370276 0.03561762901338894 -0.27902935375847415 0.2894792339560428 0.5326362420348252 1.3284590281401352 -0.8101299740201293 -0.8774334388036816 0.18767766802884567 -0.7985299656086676 0.8605495554408285 0.4038987819923401 0.7799648327578058 0.45061852067719843 -0.682287808249984 -0.4870743592815473 -0.8893877472776388 -0.39065420677140217 -0.9659447169901627 -1.9098629041762458 -0.9818472035327319 0.2804503512074604 
-1.5456074112365399 -1.5789530270177643 -2.5790451591382237 -3.3062186465050214 -2.0832473034800865 -1.5140939250024466 -1.2026602470070185
bestWEights.txt,1,4,0.5,0.00001,0.25,
