63 7 21
-2.073373569042565 -0.05839430457936512 -0.16112223999482378 2.1383608011918156 0.4077775317784753 -4.131558820227027 1.7456394487316103 0.09846187393675843 0.3962176557899615 1.5321845505711376 4.440402147280899 -0.3768068714339201 0.34516923300798563 0.20534991025095395 -0.20878712537674016 -0.3481780962405261 2.233882537496899 2.1397915620303993 1.7071534327951206 -0.059866531640401455 0.2551451416011483 -0.032801300018253876 0.14459875333196415 1.9268801128392972 1.5897600145910804 3.8704348580587022 0.4139602741056294 0.3918420035739061 -0.17387212221122517 -2.04187489781099 2.142412907028893 0.3110477000681411 1.810609076381782 -2.3335033825207843 1.8662694396954833 -0.27807074195043036 1.9731290031595619 -0.31467105096796333 2.3760795431799107 1.59966286805372 2.4625301885111575 -0.14102750035593825 -0.38180519014726066 -0.2843271722689269 3.7474635691043496 1.748744722279274 4.16845561451048 2.2002536013478333 -0.3088501465759448 0.059615839341290444 0.03681888728222449 2.0634901874061953 2.492131491350578 -0.06805338896004332 1.8361609984828187 0.242134913981229 -1.7018250523165952 2.1781428951180315 -1.8458470202696002 -2.1651756869133956 -2.253228700873577 -0.09555699862282707 2.3040202804494156 
2.1632229602279995 1.5996553836157288 0.49816236964127625 -1.8399019556422012 -0.3439067582691455 3.6955161181708602 -2.111977266965032 1.802138780355301 -0.1101658300121704 1.8074364915351777 -0.15573746373310815 1.968393517083177 -2.1143025126863906 6.349763511899988 0.3132065515823297 2.0520087435094854 -0.19542750954917665 1.9862767691906247 0.0786929762182993 1.878513104880434 4.299183763341976 0.4244973863839099 2.282873677444229 1.8256998077459912 3.688120594913053 2.391485970610777 3.615174665528838 1.5910777154673261 -0.0995410590318282 0.23915805037019666 4.16554145522084 4.278064123064045 3.8672762958754245 3.5187472813988876 0.056257373939512245 0.379319170867646 -0.20485161621699022 0.03689788388972648 -0.38396268583606075 -0.0759021391910939 -0.45324424493399307 4.359969917353376 -1.9592366561351777 1.526222510123865 2.1750177941376134 2.468491811693688 2.19714278690297 2.3202549780192894 1.5097102069783754 0.2802967362268265 0.468733209472751 1.8056747274404525 1.579311399870622 2.058730831155452 -1.681806907033371 4.432344976572517 -0.43413771350481745 0.301422599755663 -0.4547191901017231 0.3552761196804557 -0.06308709085114272 1.5654546540072185 -1.9429613773929448 
-3.623831706689951 -2.1736196555948184 2.3347627645735374 -0.46152959403794425 0.14323554564544771 -1.6086203110805868 3.681774242926426 -2.24093049344263 3.5329124017605973 2.090950001104689 1.7666693529353088 -0.3563499459519892 0.17574728628959368 4.458878819173515 1.9386432162984546 0.07849091523827445 2.02413952876533 -0.12315203404476005 2.284642842164406 -0.48210720998981316 0.002037621262541034 2.2078689714682898 0.42252152642472707 -0.07219367195590753 2.461332563003379 2.271852171966653 -0.4199706641689158 -1.5170140878734024 1.7843320255291788 -2.373037166747431 -0.40361096306007926 -0.045532590870284384 -0.3007593394207655 -2.4879805055802846 0.10137087569692316 2.1313942737344456 0.13436046903040522 0.478041154208793 2.2761936727866168 1.8096933852605153 -0.2732354438193516 -1.80884823971477 2.2812434001606974 -2.1501715408609554 2.4224862367820608 0.1244015049927305 1.6475151014278113 -0.44316476623993095 -0.04219471050198109 -1.6273334578582535 1.671847403357412 2.168069337677075 2.395001110334099 -0.3773599444865414 0.13043369433590524 1.547574523235014 -3.6990173688104337 -1.610971079240887 0.43075711446485654 0.2807050357463119 -0.39650658719621346 -0.011577552975311711 1.6590115960035647 
1.6371292430821685 2.3639004936472423 -0.15176533875276044 -1.6605629591084932 0.4001951104976347 -2.203699806348342 -1.8082083861399898 1.6715084727550318 -0.41653289723867637 1.7421621937168372 -0.14248444851968256 2.3636110977789464 3.5032139592457936 -2.476271394331717 -0.4802793554205902 1.5883156407710062 1.6733722048883588 0.3629665173486343 1.7194714072963637 1.8666297070069222 4.385557402553674 0.2994426626982116 1.687903461923653 0.40568414289298094 0.3306339874419777 -0.13902396850828191 2.3230565170613833 3.545902072849142 -0.008145976569988278 1.966347164430599 -2.402406545053696 -0.4799260573996986 0.26711554737632337 2.4309441390670705 3.792944221779308 -0.36601206910128736 -0.4633208994660576 1.6190770580330254 -0.3951735826285059 1.666742154044294 0.1827210268374213 4.240794234689432 0.3457596335803528 -0.2414085183106638 0.3883904504799234 0.026384709436628073 0.18210356719262166 0.3051580447517783 3.8965764206947004 2.02835387818415 -2.413685274359989 2.409061704799151 2.292380667358805 1.5985097867078757 1.95953030708655 -1.7464973661706327 2.288329955561455 -0.3331002322651946 -0.3147479845856138 0.3570552422609602 0.43765218718304966 -4.190311454966207 -0.2881834752914414 
1.6784782538080414 1.7346701922923535 -1.8704966202727666 1.6290180438278936 4.120621370270791 2.2359584423053827 6.107545308542196 1.7280992535076596 -0.4733750978717466 2.3735008866426 -0.013030111681711531 -0.12185770180562994 -1.9899422016912687 -0.3815856243628315 0.28711564740128326 2.0850755381892867 1.5765771389737662 -2.028259292007565 3.876829261443482 2.2534545521487632 -5.732934968737366 -0.38792721181745193 1.585765892400664 0.4885194527498724 3.827187228263031 2.4566034076489274 0.08687675618022572 -1.886308495495263 0.02400923694224022 2.1305001377485704 -2.0319159215158096 3.8715579841603738 3.957844881880024 -1.7688884186244245 -0.4706937118059553 0.1836195332498427 -0.023698247875130862 0.4463615220844157 -2.0095889426879188 -0.467448931164939 0.08752647135477831 -3.9592107268345034 0.4763375116633599 4.5458431937950294E-4 2.0909419060881214 2.458046138611689 -1.6424567834010304 -0.25244252657925337 -6.003691975459535 2.305259234059463 -1.7329044923434944 1.7480380557510116 1.6857263219181502 1.7825256342411429 -5.609859299548111 2.4131350797000186 0.18824753161209973 -0.3000986221962134 -1.572850935571906 3.826425626003115 2.383031004092186 -0.4153985357496164 5.969247257598998 
0.4245432656290151 0.022728323217263924 -4.107886105544983 -2.2454554068628836 -0.30792754994649973 2.302697934265379 1.7743284441715734 -0.11487544230150193 -0.3941257694179727 1.6316346470185588 0.27672710695532743 2.253576591690413 2.2235539825188027 -2.318643410165107 -2.118766057148381 2.000158586906568 2.1328289727808603 -0.012824151258056471 2.380799079544603 3.6087215743151013 -2.209396437412007 -2.2294112307982967 2.036490494079637 -0.25654990515942355 2.123329024964968 0.08603331621665777 4.373449070124784 -0.34300076789488854 -2.1000905929438716 -0.19775780017343836 -1.8256682847750403 -0.09629827467370111 -1.884046833160773 1.8203216732174092 2.347030615802539 -2.001255477002069 0.3869596476457937 0.10353799978334033 -0.007129106368749305 0.3526912301255962 2.1380689725833344 -0.4521054630090444 -1.8178466047917237 2.280453087292745 2.1992920500859254 2.4579344041655786 1.6558230964948062 2.1347879931180764 -1.7323224764374292 0.4088051641238415 -0.08479270446094644 1.6466331526159588 1.5816605150430139 1.5734733168525445 -0.0638170557414095 0.36805425894828625 -1.9321220122432359 -1.826921860883902 -1.95020482556802 -0.29168009145840434 -1.8329759266430632 -2.4312339251697366 0.3682641148081456 
1.5228578174752467 -0.3450518107547924 -2.4965192044011486 -4.374091128758845 -2.272734894962076 1.636774681877812 2.22450694750405 0.1477563128193582 2.354315333929859 -0.02127725052827889 -1.8687422794765447 4.153964210919838 -0.4124573490608989 -1.7034555109676006 0.38346032609578806 1.9739982566563263 -0.15277951251329547 2.231424174706312 0.017145687306343138 -0.25434145993800117 -2.041812729110373 -0.10695490726640267 2.4053441722987836 2.356815567839544 -0.43617965389813407 -1.7126319481736956 -0.02467925675374638 -1.935499827504394 -0.3119562283117068 2.2552751374875935 -1.6184012634699432 -2.209354716676041 -4.42520450435744 -2.1601662751717092 -0.0478146283296621 -0.498995611448503 0.19316767014673375 -0.32721237741152365 0.374826965430187 -1.7377521722037628 -1.9135265945899569 -2.075016581550341 0.27078455922740297 -0.45803533582685585 -0.43521774152551074 1.6007919436298175 1.515536184821097 -1.9327255021014684 -2.4069945433441973 0.47318617050318856 -0.09102535234664533 0.08998028749398923 0.11040186152359999 1.7539886499453579 0.07208531067213109 -1.780330704381782 -0.06758676707806566 -2.3270973174139504 -1.7472493892507461 -1.9191033886892706 -4.167971928771417 0.49929360319748894 0.06024395338380195 
-2.234268585731381 -1.9360032653602977 -1.8373281612589882 -1.7613871183034164 -1.9550910503049206 -1.807868004737136 0.42958692154870126
randomWeights-oneLR-zeroTheta.txt,1,3,1.0,0.00001,0.0,
