63 7 21
-3.835934731273685 -1.6549681418296616 0.3537609350707749 1.6788777847463 -1.5501425654706225 -6.350483155985808 -1.9632795772740255 0.2342083752901294 -2.4697966510071896 2.1195067309016515 6.457388283223851 -2.4242224985111136 0.3924374123767075 0.21037101817614534 -0.3932228325889444 -1.7387698594011303 1.5712783271573727 1.803163519325862 1.8054291472115271 -0.4655098187571771 0.009390092090226565 -0.21301573164465748 -1.6144437665453144 2.417373545674291 1.8937509565532458 6.170044316965772 0.36597174930016596 -0.41031510387825154 -0.19913093840906226 -3.733417264793129 2.273652353288951 0.039029583017483827 4.133296741278695 -1.804737570974405 2.055808191895938 -0.0843257509123454 2.0105603727602865 2.394397156407873 1.8476290057644125 3.7631408370966017 4.489535863013648 0.1103394441297052 0.2134120991854611 0.3118201820409907 4.232464668030934 1.847585043974337 2.3625676639376176 4.320743511725341 -0.48478120536487923 -0.41737340577427506 -0.24296403003623457 1.5317509616585134 1.774087712166706 0.138315376867562 2.4729396647544375 -0.33935155258970884 -2.2737264214893695 2.4914668690098285 -2.3431658428698423 -1.5084546181403184 0.46744603167986654 -0.056327789944391915 2.425707117161343 
1.849121183207727 2.0237542506493003 -2.400081668168995 -2.35795932745745 -0.13070628759193514 5.710033500612176 -2.2704408056037777 2.155792125321523 -0.22833464391690406 2.061545931663193 -0.022749017348445477 2.0404198628973216 -3.9580234116874777 5.629580918718866 -0.44581036160500553 1.9857286220101318 1.5143628117946768 0.0843842170122513 -0.42871618471360184 1.906235588127407 4.356320162592451 0.33659771156307494 2.3635224255626452 1.5681991318623156 3.787780345563582 2.058983995610688 5.573246789355209 -0.30297421758764953 0.007957531430176745 3.9212101123259915 3.536791026964165 5.5619118231784 1.9530450614065575 6.038942310947628 -0.19100545396534896 -0.011321760508113066 0.18850327148234802 0.10822889286637771 -0.01862181016771869 -0.012891685215573823 0.45159380497687884 4.4471260873941585 0.30231595572251146 -0.30430025552418893 2.1029801798298875 1.698747379309033 1.9913221279328739 0.144593797326539 4.020628266905887 2.2633942662123117 -2.4453864680456308 2.4165463335758326 2.2749042091038847 1.6221519107454476 -6.144604526009735 6.146156467237541 0.26068177922784663 -0.40968918237613194 -1.83014147725476 -0.06082918995281128 -2.1695652676307553 4.196201306124701 -2.031336753208277 
-4.62829564726328 -2.680495377815029 2.7037282244108387 1.191943812265868 0.7029958455617349 -2.55716874751312 5.451426074414648 -2.8229289771141532 9.124071866098813 2.8713325760657304 0.8658316792181804 1.175104659086764 0.9497750597492916 4.557340231771144 4.5294548591405785 0.7712614230526211 3.3809258875146835 -0.7694978257488567 3.453930026248684 -1.3421018135477718 0.6215058137195388 4.878612862097803 1.1794233415663027 -1.2577311435050218 2.738250330326888 0.7503098890095887 -1.3509423257259219 -3.3234460282403067 4.876939853690579 -3.0419627366940336 -3.2065555261952605 -1.1773553679495254 -2.9009088225021786 -4.551848633322764 0.5504505734788534 5.118264033297964 -0.7165842458151834 -1.4252276997056352 0.8666172604515512 1.0463614656608238 -2.7516745757998526 -3.235039934421575 5.079187970896401 -3.0736847701025 3.4949300515459667 0.7950214555079551 2.9614898654514388 -2.9566680026692707 0.7443857938190308 -2.9887698728376404 2.629453725226901 2.7115328727873664 2.7491168245547564 1.4229689829522352 -0.546654274503527 3.226566347415682 -7.305653003370912 -5.0277198297686025 -0.9036764713487955 0.8051915140338779 -1.1254575158038893 -0.5589647633611157 0.8102184308375067 
2.228780287610916 2.395413897198826 -1.8410158067348519 -1.9614507627109183 -0.2502785047253757 -3.7128931965070535 0.4115420917892818 1.6220245771623356 -0.2572177508676867 2.3316340904927024 -0.05170855339389613 1.784161839907195 6.405259739777049 -3.933601793034718 0.1593429592608513 1.7102482476569776 2.219584085572493 -0.4454340747034591 2.477572207631685 2.044132971386841 2.210531490547757 0.04560105724966812 2.385879010141357 -1.5779752834040703 0.2031478697044431 -2.470753920114114 0.4655778695787931 3.620456520339631 -0.16370368970487448 0.026977123775637768 -2.188366547862704 0.3465242998374407 -1.7638442775600671 -0.3465661843792893 4.43049455361235 -0.34739227527511884 -0.06533783513020941 0.4500514815479092 -0.44243156579178455 0.1931329686572537 -0.17020162679708783 1.7441002768846845 0.18391700125293253 0.057538843065594314 1.7278010136786441 2.3185620207389883 2.465545356781233 -0.2885408680132864 2.2817693284049514 1.9917522500864697 -1.8963082210799949 1.6572359284407128 1.946822979910988 2.3003215381610174 4.230817911429131 -4.21477047263663 -0.09112931449345973 -0.14475333073300778 -2.185463395858995 0.02899301235535945 -2.1877843906900942 -6.40235126272364 0.10050401322441016 
1.5106372746233068 3.619752085076115 -1.8446583171701865 4.363559666589364 5.997254193505383 0.43602415420731244 8.141943180137156 4.116451129966167 -1.869615110510501 3.590513302706264 1.562059457402924 1.8663184065879785 -4.234210340808345 0.2686276716805627 0.3348452470176255 2.0445839478734045 4.430089192880235 0.1450755769097838 2.2450890202153033 4.486648165265414 -6.274179993384105 0.04441342229995282 1.9911369461796529 2.337040116912649 4.245501408482156 4.11662456223701 1.790061316412771 -1.9893700344910386 -0.10974820878985114 2.1373787058302574 0.2564123836868184 8.253634787796416 6.137907123543667 -1.768901988258953 2.060931591848561 -0.19774879348116192 -0.013742241506515818 -0.21531719615807976 -0.30310612369773793 1.8720993663075935 2.0089342919426625 -4.42927401892021 -0.46571497610361456 -0.27173519596973517 4.2046369398117545 2.1312724132570167 -1.774190680234899 1.8835763708270115 -5.905183007029095 4.286655359897828 -3.5562376739162107 4.0518590854628185 3.8305834158995027 2.228669395881863 -6.1269079607357115 1.8432537659802728 -0.09347921039618567 2.0333150478344986 -1.6364891901073042 6.330295328244082 4.447270063281962 -2.4144224121817204 10.152310030380342 
-1.0678636466864708 -1.1528216057471181 -4.8904320892822275 -3.398331448219979 0.6536534085453162 3.117964581905774 3.02873025079313 1.3692178878790942 -2.8320528082565755 1.4425784069226908 -0.9119170480978416 1.3959482948568782 3.4879060470541883 -1.4037250783871578 -1.2575757324708579 -1.0531115334046706 0.7945782431595001 -0.8527670477511152 1.4692834907395103 5.355455219915041 -1.0021173904164942 -1.0625691346011867 -1.0096779400147735 -0.7547302618657026 0.5646309132264831 -1.0498647786890256 4.816092638760101 -0.5000697463720729 -1.3499741696987482 -1.0607230113989181 -0.77888061801801 1.040097596455758 -1.2817884808102402 5.384466498040313 -0.9536964860745947 -0.5786479618288993 -3.481881367485985 -0.69487506166865 -0.9530542710469865 -1.4983690372316787 3.4927588138685133 -0.7818131013188725 -1.142782969215601 -1.0563407240451834 1.4432888079636088 1.0560544519735249 1.025698544491048 3.1156349157868757 -1.4564227658337816 1.1749608133887701 -1.008350746728771 1.0325341817894471 0.6066722880430437 0.6786270665256064 1.3179504664882085 -0.6592467517164904 -3.158518207626967 -2.841927079723373 -1.0257852677356833 0.9904029472541591 -0.7938585588408986 -3.394331452578175 -1.0276647752604249 
1.8639612922191384 1.699991167489038 -1.8032080293698352 -5.778189905660034 -3.821495583038471 1.8777766354407115 1.8433191020059376 1.953510879874265 0.14626557188673006 1.6102330928005544 0.4820772218050977 4.104322392169525 2.1585821579306215 -3.916790165138433 0.39526374176844215 2.3017568547888745 1.508823537896101 2.044191481438128 3.504132906199234 1.7501188189840384 -1.8834311319247874 -0.07618592755699938 1.8966867601854531 1.714299658429316 1.5273978634368692 0.4655758880887487 1.6948369036299797 -0.30657712350102817 0.3650825666834203 2.004643062144714 -0.24137367453598602 -1.6406781128473469 -1.9376171457105311 0.22512592693157085 1.515139117828061 -0.21106652195137499 -0.12268819254918917 -0.3050711599122389 2.0210159907928533 0.2550420198619142 -0.08634839822287455 -0.2717469133749515 0.2200311316391197 -0.14358955805020113 2.107664751344074 2.158058550543612 6.240976175017324 -0.4338138921592729 -2.0826413199757337 2.414266683515476 -1.5038642114518477 1.8565712212865184 1.75632714291145 1.898213880392026 2.286928078014325 -2.0819015612756595 0.051104633621456674 0.01984076215151931 -2.3991774883007673 -4.366545210212655 -5.830865046285095 0.4213294687072229 1.792436983741128 
-2.0730899644434095 -2.436582435708609 -2.7834677976396778 -1.9678747776312302 -4.139769492793298 -0.9637054625241821 -1.8375736061821495
randomWeights-oneLR-tenTheta.txt,1,5,1.0,0.00001,10.0,
