63 7 21
-0.9510752340601624 -0.1882141070312835 -0.003048581472433254 0.9729057386435346 -0.8068644569400149 -1.6409637113450173 -0.8144828673878138 -0.31228814728790055 -1.427650005298816 0.7764747025528758 1.8779173241763472 -0.26120975040094097 0.04706385699665183 -0.5984219327693786 -0.3597636204911293 -0.577109766062848 0.5144743725417271 0.8091579686614141 0.9477610276279727 -0.16754304282440446 -0.09302164817221681 -0.5039884333266053 -0.03343252645202788 1.4728958946144277 0.8896685289944544 2.3964445681586906 -0.38958374795256656 0.07473889002610035 -0.5297620243985287 -0.035218370927743714 0.6181023210201937 -0.08065429723574014 1.1809907153362185 0.4213297346399786 0.7333224114567966 -0.12724856472612578 0.9701963642425646 1.3998621828105922 0.9372852685044223 1.4794976179337131 1.9488151613901514 -0.34245728253285235 0.08370476421388295 0.406759879432 0.6786593890753064 0.7123101268832852 0.21647980501440445 1.2488130560901574 0.7593455254693143 0.7580959513787309 -0.18772095299630998 0.20285043492940813 0.5739312381182524 0.4748490157777765 0.18341259529635667 -0.09059958595879969 0.1869199806535744 1.3981922542549943 -1.1992134067012228 -0.6859393215656442 -0.9466449974886044 0.342638788690911 0.8524012598783081 
0.14401397767750612 0.7326460230009518 0.18976628669682782 -0.16737437108538666 0.06925414549206621 1.3373876117646954 -1.8172279023201587 0.3591411981150032 0.29284707115911124 0.8279751015901349 -0.09703050534735946 0.45599589081404257 -0.9328187351362082 1.7799625614004941 -0.514126108888455 0.29720333786454056 0.29249990160121986 0.22931900065941824 -0.015175391315758624 0.8292839040203464 3.1053799377788174 0.15665477775053938 1.022094324748974 0.6649116563227149 0.6354477869505937 0.8223402693575794 2.0673566883698573 0.8867948526635452 0.03436645365924207 1.2042558984026663 1.7292850457517197 1.846049041189131 1.3274169788936896 3.150264974509377 -0.21703066559564999 -0.5847018820422354 0.6155373358361805 -8.983676748539615E-4 -0.9759985275707093 0.3139657242029398 0.1644700153223656 2.8462183948938313 -0.5605055257036468 0.061695789872989515 0.9577090181476535 0.33523884450327457 0.6169641167318899 0.33556712993985294 2.361226261401385 0.3410127574164148 -0.726083641039724 1.0077443836196898 0.6504957931414493 0.6768726744362632 -2.215852867812986 2.4224333633009802 -0.21587602618654367 0.00654241516868892 0.10117632550234468 0.5344860298638096 -0.026567490117629045 0.9702493064174449 -1.4650994673150048 
-2.206369892726461 -0.8550563109641371 0.9244642444752267 0.4490453964137391 -0.19025188434163043 -1.1498686605505566 1.368512546143052 -1.470459580008166 2.949304101030596 0.9836746461859354 0.823403035537066 0.5964485730438551 0.6436963631227854 1.5260215907841497 1.5606179598551022 0.5193536783301039 1.581622050713043 0.08667186573755004 0.6865325795714 -0.0708798451554924 0.27034975481545676 1.8832916178374806 0.6708589886121304 -0.7917650684310442 0.9844671828611109 0.3417399790302802 0.1044991355323065 -1.1432851324782518 2.096763307370236 -0.9156286338365245 0.21320487257765153 0.5834638202193557 -0.26780673152962997 -1.565669613406036 -0.009643447181651443 1.848939828475646 -0.33658596401167695 0.20515604197318615 1.180336341122288 1.2422195443226554 -1.1248331145609531 -0.5321346211749374 1.7433856482099865 -0.9859761607654485 0.7648227340343718 0.6917865647288501 0.8635013209653596 -0.6930053828911499 1.0176950246823542 -0.8592359598850827 1.5228377774037034 1.12548988503054 1.2982638812795568 0.6729597951563555 0.15924803227808437 0.8693902596749669 -2.9677557149174056 -1.859674231442893 -0.551990962767261 -0.18011285976415303 0.21947048661655133 -0.08707524735454808 -0.19555809674965063 
0.6638575336400632 1.413628260365365 -0.45894868512780507 -0.8118613967085362 -0.015760412988100714 -2.8096787665524436 -0.5190277841923446 1.3416814264146066 0.278674894391707 0.9755957836786662 0.22892637424924112 0.48316077160641524 2.354844873244602 -0.6119832469320378 0.23155514394819154 0.6249429711444794 1.0104648754073298 0.41439409169605235 0.7209091587032916 0.6664116067187561 1.4501629465073638 0.07909852973610543 0.6280391048372247 -1.1986830731220461 0.05907184922979658 -0.24569174569677843 -0.42195316460700005 2.516022775513714 0.4184188196025549 -0.10582366450684955 -0.8663811319380792 -0.20583984954843804 -0.10531349181768535 0.33625972088053857 2.790979589131589 0.019172857374275543 0.6114576510970677 -0.04484732898977428 0.6003646039541064 0.7234676539335991 -0.37815478066340924 1.8761186326841823 -0.3174705994252719 -0.22864268320488068 0.6394484081245141 0.6606164408538635 1.3434720705149266 0.282712177461947 1.2570646397946292 0.8609680029638871 -0.548536758874443 0.6052118046753309 1.1849259172077187 0.10801654805906635 2.233640276311099 -1.0746847584824364 0.6740178225517732 0.9434756565491189 -0.3261631922776308 0.17154493799809023 -0.044922353009533844 -2.0622286611426026 -0.2510171140680513 
1.2201581065385263 1.24453039060496 0.3283250287078745 1.9452367560343102 2.9011812575683638 -0.3655295122161276 3.6778794148042753 1.391522041268602 0.25869702855933974 1.2242984792575347 0.16194570981471024 0.37865911453713463 -1.4159006279335147 0.07032529126295062 0.9141728450326913 0.6379152444402515 1.1398423942637097 0.031857021043153355 0.9625824695097398 0.6752745215380745 -2.185262342692275 0.8260238779410167 1.0361194631933226 -0.08389269198930871 2.35520302153925 0.49355987190140316 -0.4452867790269037 -1.093930942186498 0.4483725723619748 0.5741473560197163 1.1104974995944414 3.949362931172014 2.8792659879882803 -1.8497068828482317 0.08475041700973307 0.9414764295246631 -0.038245061124716595 0.06030320469185968 0.41328067540573254 0.8107297207425717 -0.04814684335207764 -2.4962243163870137 0.41239953123628137 0.4214486992423848 1.191895788826657 0.9671323844196729 -0.9917169937982384 0.5113037061189458 -2.6945371809341845 0.8820616504239502 -1.3255582987316696 1.7363303628800224 1.3654403679401752 0.6963460633751796 -1.6248190540303937 0.17937605286982805 -0.40859728419861463 0.08440064203631836 -0.6626530449031354 2.7411919818474977 2.297536936664602 -1.1460515577669281 4.028319316983765 
-0.9913788548172853 -0.7843878607686677 -1.1948756587402518 -0.8237207592621476 0.8891064481138362 0.4738018205050123 1.3177070723454025 0.2594561928451862 -0.1108582874162165 0.8701303822036465 0.39881501891854054 0.016234407268965745 1.8014192307903256 -0.2353097400541434 -0.14639064105921296 0.10180680374735529 1.2440086024154846 -0.42412417177546546 0.7740347700075656 2.7207456103064445 -0.06311483473328316 -0.5839619298228731 0.24614197977004626 -0.17069568594865392 0.023648200766666738 0.1581095920581228 2.092971997016096 -0.39071913946372894 -0.39503655460503795 -0.2525608334155811 -0.8987254628634227 0.8602018303331778 -0.9034465184979694 1.93342704770985 0.017247556811869957 -0.1674373308025252 -1.497901773046352 0.23715381620671483 -0.03535147298840746 0.6820864099931945 1.7001975574478352 0.39404666950351575 -0.6619573494710066 0.16343960084754128 0.8845863958637898 0.21472903774112595 0.15461658410775558 1.401570402838185 0.36808223577753696 0.29255084985966207 0.30990109757670015 0.5798112339690165 1.0632837365321164 0.2528984784770394 0.17590928953741125 0.1661139340290707 -1.9131717003967164 -1.7127656827137652 -0.49538792776900475 1.3622624705092496 0.09905566539686794 -1.9560813175162959 0.15533550962137244 
0.9372133623359633 0.8082169143060104 0.0015797575255250829 -3.07093657770743 -0.9221209736980343 1.5454973716995573 1.2409227596801529 1.0415638193125702 1.473063905061026 0.804476634503216 -0.7689140274480478 2.631191567905483 0.34450064338799746 0.18147039347700145 0.40590383704508703 1.110996211969641 0.591907395646839 1.031959551753959 0.2868522204356023 0.730031998212249 0.07355976142523235 0.3823834405186757 1.5989557030311716 1.153604722482695 1.1512910178764082 -0.9570776305404595 0.5243071460414372 -0.2195880103839909 1.0570796594951726 0.7511347571746749 0.6820972380886736 0.20896133903609138 -0.9153268150092913 -0.9633356951963434 -0.23903400776285277 0.6416265651384361 0.0872353965825029 0.13883518390591865 1.09765181262244 -0.3280705610517194 -1.22920608855096 0.23180437112868535 -0.10467193387983764 -0.16088921675583046 -0.18669642151902566 0.41604173153138446 1.705681185937245 -0.446219262908058 -0.5895694474292235 0.4202603189666507 -0.7393016504500398 0.49941549643939964 0.4517006202873436 1.2245208358987285 0.7332966534463686 -1.1033063388699373 0.6644450678203145 -1.1369146043223939 -0.46966001190121553 -1.4188576878797183 -1.771984524156708 -0.005302105622055908 0.27725405145928717 
-1.552952177601421 -3.2480035660569477 -4.873273684099013 -3.940051015242596 -6.29159434115887 -3.8218825828847014 -3.194364925154215
randomWeights-quarterLR-tenTheta.txt,1,7,0.25,0.00001,10.0,
