63 7 21
-1.125521160888512 -0.25497586897465596 -0.3666668031430146 0.14327092060532154 -1.086894615259031 -3.3563774830453226 -1.2736548940381156 0.11326216065168238 -1.387179059495773 1.162388613978742 3.6553439648231745 -0.7585230813289677 0.09172094707825851 -0.23182067574617582 -0.988375734084279 -0.5989496110794454 1.9335354144489605 1.0527477782861068 1.1782907511821648 0.69233447247423 0.7915473832515424 -0.6367350977523465 -0.6422689982393806 1.8446790430853421 1.8233916933689938 3.7284809212846617 0.4796660414910746 0.35869288937630905 -0.4963604761347469 -1.4162685645911068 1.0293601913562442 0.8731452810879444 2.104237895626352 -0.669781708773693 1.2193607029922258 -0.9614785783804131 1.4072883950869741 1.0774736843527166 1.343176430193431 2.2583462855849605 2.0203123717656193 0.012640579912857053 -0.4044057207630125 0.019742586380979588 2.0010645242104217 1.7161808143763109 1.1218706386260495 2.1762909178991947 0.3671206596779548 0.40084743562872593 -0.43317530852436237 1.4691110078106648 1.4648795802139263 0.4892354630393254 1.9348991048553477 -0.22381521279765604 -0.8967168905539078 1.1649510138314503 -1.8564570822955364 -1.9347060776179643 -0.1805279633790502 -0.46658410525511196 1.2548105140689025 
1.6367603646062054 2.810550840105475 0.0038592670678962993 -0.4636904477908308 1.1997236801827267 3.5210576453491313 -2.0919319324176477 1.9855019102158695 0.2268622809624098 1.0327463381157254 -0.0632124716879473 0.011479673922630607 -1.1917872504528852 4.8793309294420055 0.449272041220361 1.44444075368643 0.19344695559972747 -0.7686569488027715 -1.1328671872246416 1.3480525654080973 5.3654102368611 0.5632899525569988 1.3376897899274451 0.040145009530322184 2.8747157974085695 1.0349092902969192 5.465890078417784 1.8426526356468726 0.1229254121425214 1.3553505574147424 2.0449989278247154 3.5605921073947027 1.5250111702055342 3.9313386781103477 2.6000587008889484 0.9877129721168505 -0.2437929636867664 -1.0861477653005989 -1.526849733979923 -0.6844387629521866 -0.40597736337888235 5.352575702109035 -0.8742197952035093 0.18304696943196064 1.7031063152786992 0.04336086041760767 1.3112565875652273 0.24520817796996042 4.07880816247579 0.8111598729610616 -0.2212952776593533 1.5627155642513002 1.7647078895828714 0.9093685107138079 -2.7895864189033253 3.817763673163856 -0.1099634592169767 0.9362450422470963 0.16549280818868706 1.3473458303540526 0.03483520259599571 1.1700463809156456 -3.094641024698791 
-2.5761426868556523 -1.4932498907262048 1.1103587961533403 0.382057823989844 0.4746364449066528 -1.7522927583603591 2.6618766204261477 -1.1537964455794132 4.780804142201207 1.8292972611048448 0.8605618124588088 0.770155262037286 0.698657261413477 2.212633600291823 2.6788512087974996 0.45906454621021964 1.323138456801076 -0.94140588282738 1.9047508770276451 -0.23726311417254609 0.7888065603488976 2.001927844331382 0.3238801197960429 -0.5894511121102122 1.5120390627723008 0.3079158853378132 -0.5919297998784754 -1.6856157205704383 2.202621573477444 -1.0539594281151075 -1.6686511662368915 -0.6450004332632824 -1.7839557496075322 -2.3526559576789507 0.5179310685162832 2.965082764287584 -0.9077613666391766 -0.1743665021621018 0.34187576698670696 0.901369251120024 -1.0678473646628481 -1.6625826153964836 2.044356346587857 -1.0414687045327158 1.6004755710631549 0.9314328951222404 1.4120331287019903 -1.980841626038139 0.6109888395107526 -1.1041479404218257 1.2688041429516947 1.7569979143471643 1.950432356650766 0.849730190293916 -0.626750176379967 1.5147268745054507 -3.9725594906834036 -2.1550132565764617 -0.1146234139241078 0.36287675006802966 -0.6049840768871655 -0.05381427472607614 0.16880275504976616 
1.3881726809104586 1.7376089570834088 -0.1716798373469306 -0.3928970318875118 0.842795669397407 -3.729408045830416 -0.952197216904946 1.4306739539222229 0.61742578882901 1.8088193052227362 1.489723912328528 1.3145819340005573 2.7265956353431506 -1.644747622378563 0.2450815514307052 1.8732294120193718 1.512503752220436 0.3515891750575735 0.5813213886773263 1.0067886999000588 2.4312299410589104 0.12963244634031268 1.5258853998865107 -0.754343858521557 -0.28964184060274745 -0.33633110400385613 -0.3556968356844499 3.5516941938966813 0.34678735687156115 -0.07606121156627565 -2.2757172969970276 -0.3927020208142613 -0.8433250672155026 -0.8364980210546391 4.961045544169255 -0.07882568342006036 1.3638715144378386 0.2842827016135451 0.15419087413955168 0.6588225198514522 -0.48113042306028575 3.022802145647189 0.3726622424346171 -0.03394180196996199 2.3772029306144438 1.0720846001602498 0.5219291145287845 -0.304477349217827 1.7343975928835809 1.413449042570659 -0.7437149327676225 1.8689719018182576 2.113989228022237 1.0703752161746407 1.7192034076274103 -1.0877585283834015 -0.3642141142538866 1.216359133657093 -1.3340203542161988 0.6851337024460009 0.353469299215716 -3.9303498071617176 -0.3745700947869104 
0.34379160740627457 1.7899879868193174 -0.6087970580836073 1.131257304791501 2.3540385658034024 -1.8440658998184403 5.79830287030173 1.4850231662737974 0.8700948944292626 2.146120113216292 1.4367083230551019 0.5327193033526854 -0.9456394793632175 0.6737101311009757 0.6815134648950245 1.3487024624554567 2.120931339482282 -0.36939746304896826 2.177804623033467 1.5891469443813906 -3.6351282434325065 0.0863717986972441 1.7085258382058668 -0.45865199812978596 3.2430706788848136 1.9566787235998202 -0.8051243343144221 -1.631417354840381 0.6160860945734901 0.7068528703240529 0.43131637868815487 4.0971896349350025 2.0035481379712166 -2.8114213943636517 0.5410660622539538 0.6903812515566403 0.9801042771464088 0.021091747660345495 1.5529828164866455 1.6324014855068065 0.6445540750060695 -3.97697867429181 0.9470398593329388 -0.19300326601320927 2.431735577348344 1.0769866101523822 -0.506871087026505 0.09576661286586763 -3.5951110162717272 1.4662868456111737 -1.78328172493421 2.044814012334131 2.5656374839564426 1.1614974193797165 -2.1350683152425196 0.1522152770572438 -0.35061060159322666 0.7545125427301766 -1.1820975627866024 2.814182647216719 1.3358794480250893 -1.2614485928348416 6.992796563556402 
-1.202268663199161 -0.38512867822849983 -2.078312050591323 -0.3511917553811541 0.034337633595045935 0.8704076457939562 1.8495075212750485 0.5474145227590741 -1.5059824970894224 1.2152871325873582 0.39457698314772804 0.18465831871457805 1.0743260692834555 0.5951377180430393 -0.958222103044647 -0.43803967829404455 1.7085542814135999 -0.5996554812248145 0.49719441635800976 3.2385381395359882 -0.6041288937688307 -0.017121892262699667 -0.27689152934661254 -0.21912864798273102 0.7132250809496501 0.061048080401714166 3.2935143046904827 0.39649372009134376 -0.44096487696631526 -1.1564890514458568 -1.4371412332210225 0.8143988264298636 -0.8781340536096116 2.7360885276885942 1.0245027667917137 -0.2278027017767117 -1.1583041905625426 -0.6915708235236275 -0.849561875497998 0.04926482799278964 2.437050109014867 0.7922709929426641 -0.049916348340713235 0.8454722517454467 1.9081871705935458 0.7590424032396841 0.46352256991523433 2.4466903414050787 -0.20531283624012087 0.7817625532391321 -0.5866667294978152 1.5411132864352273 1.8652088593218314 0.8246798765497976 0.27920387109558686 0.25454682298495057 -2.152156315973247 -1.1761854210132898 -0.8691897144619931 1.9581583213311884 0.7714094491865536 -2.577453565366439 -0.34302310728999263 
1.9811912537864211 0.10861660011264007 -0.03707285009260364 -5.59023166440416 -2.0829493790851465 2.0623882157798343 2.872471683461951 1.7293145264127394 1.2974880047580086 1.8709376253716168 -1.3317306822025903 3.6838712512149554 2.440157956915447 -1.111476155830028 1.4308363757717752 1.9854390397256 0.06750033130677602 1.4312114500543607 2.395768387986208 1.6847263616634351 -0.9044351380562901 1.1818977259938395 1.0386771596236246 0.7160888775899346 1.5847706249674944 -1.8482780155426122 1.918635660671118 -0.13443461174064142 1.2432558336615147 1.2948115422296307 -0.3365381802459092 -1.2600781791062237 -1.3833624403219416 -0.5944550776771067 0.8639619504174829 1.1124662645543475 -1.6275847937426697 0.24099017720265603 0.05929270323443869 -0.8995005775170788 -1.1070849845014228 -0.09409797252054197 0.44189044056415117 -0.010383502108318066 0.72758786654641 1.4136384747751647 3.387955599171102 -0.838321588421433 -1.6763641037707382 0.9935842759361067 -0.5717317494403324 1.5061213665646687 1.853357864550898 2.1541447409074106 1.8141509563697915 -2.1016246216156307 -0.11273272112035693 -2.2698998608889944 -0.5953165207867188 -2.1854856245985776 -3.8760486043720603 -0.8559122355783657 0.2038131383769478 
-3.4432770562748907 -2.7074548313095335 -3.2484883084610567 -4.386864370180373 -5.404922952312802 -2.765607026868604 -3.331212525188863
randomWeights-halfLR-tenTheta.txt,1,5,0.5,0.00001,10.0,
