63 7 21
-1.6821095353315003 -0.4342044726832528 1.936730233595426 0.274510296929352 -1.9222481077085645 -4.279706412136317 -0.36932496485279764 0.20277183222651862 -0.26469225383451445 2.3231415423837176 4.311565524037657 -0.30634755413347836 -0.22410444046440414 0.26100812975005905 0.44059512363227915 -0.11363893656200741 1.831682927591965 1.7128283835971012 2.3430846988544314 0.15382638086017075 0.4662171947620799 0.16236846415748918 0.38151400226715526 2.418770873208659 2.1995691437752987 3.5935613117381364 0.2125459055283595 0.31101838869602805 0.42009717062845375 -2.4704676743757696 2.4776836352465446 -0.043651594980290476 2.3688976018169376 -2.219664526696552 2.207864697859198 0.4069377418874467 1.95429609279345 2.2497727123833755 3.684209715237618 3.7244062755034606 1.7562735455063598 -0.08173019994403807 0.49030807904035134 -0.4912897484993246 2.2145098736209903 0.16663500077454718 2.015836761816955 2.2296029666663677 -0.34123305161537365 -0.06537347922207282 -0.27302769361173995 2.062109570661595 1.5366224526929062 -0.18139173361019645 2.1059702335986037 0.0534389174533878 -0.07889605965489255 2.104173247978852 0.2804505492252245 -1.6440177673233056 0.13956271477293614 -0.09753303554409365 4.012341263128702 
2.155165512826002 2.013043443745878 -2.1029031919341286 -2.254477096835311 0.15367132512481874 3.8714393044943556 -1.6642786739202329 2.2172773044571015 -0.3593005297707066 1.9562516984981766 0.08529223876187397 1.732055837582129 -1.7615155424898452 4.328358568618904 -0.03190816457808765 1.574700914279593 2.286152105565548 -0.4459798441758811 1.625120207798746 2.246979045891147 4.293840023010154 0.12395350734625943 2.0366760689616483 2.00290848978409 2.2785257095202214 1.6220719881715784 3.9008562149487402 1.737527282412564 0.018212980116163235 2.320434278346545 1.86023883070746 4.285040227268401 4.301168249379855 5.581048681253211 -0.0023209383722613275 -0.09798989815782244 0.3181858781254787 0.4305298161400579 -2.015939408648854 0.2122352396267444 0.44840137916789136 3.9402068456725576 -0.24599051688345552 0.17218128573797076 1.822960923714692 1.5921333887395286 1.6099921863269426 -0.3206871505241198 4.215893080175578 1.640551365786877 -1.789117607973528 2.2903958730054783 2.0078198344857836 1.5887121472880552 -4.012003771858451 4.142819405136973 0.19568117519409034 0.2925604329492053 -1.8502408625658435 -0.42078899816848825 -2.3195623722038157 1.8756370745146147 -2.414418308583304 
-2.645245917311442 -1.4063404362818175 0.6601859643183827 0.7510869083521783 2.833956705525564 -0.9774103180502918 5.10153781988679 -0.9899683569916158 5.026094793449806 3.4605999639136398 0.9287048169535339 1.355844222450175 1.1207273905411435 3.2322015562492443 2.640373433813655 0.5341326756961591 2.9910945477232085 -1.3381016683440996 2.6904229316627792 1.2135338836155487 1.4506213276683648 2.8450831120197906 0.6138682862498173 -1.189392716561637 3.2822424263184575 0.9854936465313009 1.0346473104315401 -0.5696241007787033 3.467823763367676 -3.008602311253791 -0.8138576247510039 1.2440785638462417 -1.4150030611811202 -0.7732223717600379 0.5059904537291273 2.845423201092763 -1.089988845822834 -1.2008626433346206 1.328649510277958 1.1276084572287521 -0.632253723120483 -1.467845059140474 2.692353436588507 -2.9943931698272093 3.1038202745840113 0.8192566660445735 2.8015015242161354 -1.128320517588885 1.1187627122355768 -1.1167105091952276 0.7411927733473123 3.0168188020191367 3.100515058317615 0.5778204290367079 -1.3724706825615418 3.3767925937838426 -4.680941559290185 -3.2428070830314333 -0.5045228076470325 0.8686886519681032 -0.7942425892173606 -0.5846779557574822 0.8754869391032871 
1.030048150674788 1.2473116881792832 1.1907405201658732 -0.9192897116276169 -1.0926116169129965 -2.9766715244963824 -1.1811950706062024 0.9943869845318724 1.2249250882673055 1.1807689586142107 0.9046371616419745 0.7673750111860322 1.455125699513875 -0.6613920147254375 0.7862993140992177 0.9250864319068146 1.242656799331281 1.0169174845453852 1.200406159361824 -0.5300327427506515 0.5960842151572581 0.7048972630890982 1.2712424231302073 1.0662697470461615 0.9935067168892828 0.5623597754090975 -1.3443498078724145 1.3526791009099224 1.220025198712651 1.462463743994908 -0.8847983662178631 -1.0300169856069914 -1.2050121737269635 -3.212408209973909 3.2178358014689015 0.6106998999692821 0.9182409798894744 1.3756197649226238 0.8330526499248058 0.8985570036013623 -1.032845177417645 1.2804264925247417 0.5779211537250013 -0.8120626683417617 0.709981132108223 0.5583444656221213 1.3955731124585617 -0.5631100074776718 0.5661407616347387 1.121353347826229 -0.9964827682367957 1.1520258584530643 1.4403262158589833 0.8081700150766405 1.0360232639740614 -0.9704037928903948 0.884844745734997 1.2159901532003792 -0.6770107369099061 -0.675720677078971 -1.3965841729210222 -1.4915118778181875 0.8971194406038974 
-0.4003234514304119 2.369783382608736 0.0019041219533233456 4.012243301625491 3.5949365959461606 -2.4905667448620528 7.5848071065527485 2.1833658454045386 1.6922647876102426 3.64011337328832 1.5032303259258155 -0.0574958517529387 -0.35222309720172307 1.6474988040141385 1.9452392266460223 1.9178188924905761 3.525034689892612 -2.2490395655649276 4.372696595538317 1.7414102888958332 -4.0452457230506305 1.8140423352610655 1.631366714735389 -2.3357186027866117 5.6995616199702495 1.6052883191991656 -0.2592845292078074 -2.438637248074768 1.7323216863196005 -0.26716373051141185 0.2755466564436231 6.17941226164961 1.5766068405927491 -3.819698688785474 2.1822780052724964 1.7003303536614618 0.22915937655436847 -0.14317972715394767 2.334575185648189 1.6934073982560078 -0.41325824313525183 -3.6592691174129897 2.1262259944402913 0.3122467086236196 3.933557849150403 2.0442115517603696 -0.07644945817736915 0.1555832265160817 -4.289533518864735 2.3553085694443503 -1.7446921145158747 3.5559443440874166 4.483498883133972 1.9241292147099145 -3.7950267006060887 2.1860759229447284 -2.243270397326575 0.15158108902754197 -2.4115754652629997 3.780283154622807 2.0333403760733972 -1.8881108484403724 8.149489422894632 
0.31875487272017633 -0.4057760802563066 -3.8135286897839777 -2.4068714564863174 0.08101158859605206 1.68412549727782 3.7346827739898245 0.4709112060135152 -0.46391860160058795 2.3220098077442577 -0.3268175703804106 1.9118361067103327 2.009624739555391 -0.42610489179167477 -2.1016769107642954 1.9736634766710448 2.041723346650738 -0.07141186912396336 2.0123843070107883 4.342898973632619 -2.152590516135884 -2.204078949336733 1.8124758981878775 0.45026056053863384 1.7233556697109123 -0.4777682748701042 4.233063418542245 0.48841378875664443 -2.0001236830034177 -0.33786837313236373 -1.7051197110423204 0.45041418554509915 -1.8225681839466987 1.949707067181687 2.0436557510237447 -1.9729779631012727 -0.04188477789029488 0.3976510199773391 0.42400132611027375 -0.297968474704402 1.9851398712571504 0.2194244852055367 -2.4730365594545853 1.6669824800626216 2.2371359986662487 1.8173977926292573 1.674162633122409 2.2400996264236746 -1.8108965869090237 -0.09097596921632256 0.35710522537352674 2.3190313566097354 2.0481559999138894 1.973447670922274 0.13716617526146502 0.02293532340877924 -2.400266884500053 -2.40744587632276 -1.770093150677062 0.08668638628976666 -1.5412577678060115 -2.0666834273836723 -0.3531951629399286 
2.810135586947239 0.5723982670060463 -0.5518625338714802 -3.0783491778904253 -2.9552864938194214 1.0993204679106339 0.8726744055648332 0.9131364311280143 3.048485455447488 1.4511068477442857 -1.1470011856810514 5.041973927853839 -0.7122908763630953 -1.2708319907635985 0.6996911570304827 3.1262802187871657 1.246767237896386 3.3282898490713295 0.5432727437286224 -0.5393760193257169 -0.7776696663175804 0.5679424662711123 3.459721263357213 2.5023085473048403 0.9547930581886185 -1.3422731438147872 -0.9264660846948534 -0.7778698000872324 1.0867608409918934 2.751628835554473 -1.168271880915035 -1.4963241866290815 -3.0215976729549157 -2.9501493335942115 1.0728336502289242 1.1949496643221202 0.9807724434573446 1.3923429663869087 1.4768442597278444 -0.5829032524984699 -3.1292499931648567 -1.4452394053975737 1.475261071999458 0.5172156710040698 0.7850223425047744 2.5054181626087697 2.7247734879746996 -3.3842686414106775 -1.3444105672461921 1.210921836927334 -1.1962118193934241 1.0435237397891926 0.8455480173318977 3.1885063627114523 -1.122069815987158 -0.9100141102118509 1.4114559932646484 -1.1052928149449484 -2.8011953626372663 -2.6095888126129974 -4.822633726685925 1.2128494249338222 0.9497213941491904 
-1.823299471181424 -2.0504752897689413 -2.835902791234371 -0.7276632197007724 -3.834323741079518 -1.543687284279795 -1.241542680441329
randomWeights-oneLR-oneTheta.txt,1,5,1.0,0.00001,1.0,
