63 7 21
-1.2133941137101387 0.21490514841067598 1.4157649600942785 -0.36883038085639797 -1.1613322335552616 -1.6445026245051797 -0.3226391454894446 0.4502685405437036 -0.1750905603795614 1.3103194054799496 1.72122341557363 0.479587555757772 0.4369420714986789 0.28776771841642057 0.1795228967582655 -0.4952180837238269 0.868490283775951 0.6500806673034407 0.9289094355361882 -0.28431726073306496 0.2917234163177512 -0.4763435083251035 0.2754172155231691 0.6632990585525134 0.9549637978304677 2.3790529861473244 0.34120518315892634 0.11132142027014558 0.1273883741679107 -1.1514782532753258 1.4808015293587478 -0.4846879412124476 0.8282545245917363 -0.7000937007985599 1.4070584240511823 -0.12063219147614967 0.5213441244127398 0.7179600064972391 1.5908120895917741 2.0378940802638463 0.729734971993577 0.25761609756410664 0.41328287174750833 -0.010771061943906202 0.8316721171223275 0.4284691748883974 1.4965387410422388 0.7682086691939362 0.13522585006089793 0.24570353123683497 -0.3851154880916491 1.4863672648619817 0.6975869887431508 -0.16006968759090268 0.5988289857809603 -0.4086857526308074 0.2542648575400631 0.9568728225434516 -0.31668010105976685 -0.8990636605680669 0.05411628761298437 0.4975644295706513 1.8232272615660288 
1.3580492882686377 0.7507016720205504 -1.398406951678833 -1.3193033117711197 -0.14759211686765983 2.2510205725097885 -1.5100441559603794 1.3607522102156173 0.25245963843246333 1.2610411492141775 0.38509680658425616 1.2333673879269769 -1.072928972841603 2.718251762206312 -0.4571566913451459 1.47417826113408 1.462569730653255 0.11578140063017606 0.25710509127722037 0.6135702057576543 2.701957367738217 0.19183447320292302 0.8911071178764165 0.9597596755414872 1.9450500368657637 1.4916393319969705 3.157822337336218 1.1395220207435863 -0.3242119746917643 0.8353884292468221 0.8678964856914666 1.5053754298941828 0.3948702896224081 3.4766243661202165 0.7158963410260211 -0.32536777219695345 -0.12096672265401165 0.26775261782948845 0.05950171989609565 0.26358061556192547 0.46270766890364723 3.4628388134677097 0.06130062181808327 -0.04083889972446253 0.7434508945458317 0.8825739806692847 1.0091362016444334 0.4308539876954043 3.449466840336509 1.0422689940168781 -0.8915072607722878 1.227095358365764 1.0756892647226863 0.5009648981801175 -2.4508023874923865 2.723390779965033 0.29431790093155297 0.1282231781166815 -0.8112452777652075 0.39339749275153535 -0.92363798938276 1.2048858430144223 -2.2340858561534125 
-2.577341111779713 -1.2249271649264792 0.6606218918470788 0.8467845916637624 1.0959996939142482 -1.0510907314303644 1.3502824403070408 -1.6905564817305476 3.7704086183306784 1.9189534285763388 0.8773062865845646 0.6331934218498183 1.5692855277142093 1.298021219305133 1.8392031090979382 0.9208292086816195 1.051036575938002 -0.9879191919137347 1.640020993795693 0.5650877277952633 1.3189808164299253 1.3891166766047292 7.204202020891781E-4 -0.4168783780293661 1.0817355843757608 0.2733396215704942 0.016111604034495075 -0.4582359995737013 1.170946680269771 -2.0361548804188603 -1.6327279484679966 -0.1619813380969518 -1.2648558646938828 -0.9722000448320576 0.15090097965070892 1.1158121341533738 -0.42833183674120434 -0.9295376779919144 0.6708555563334798 0.8978957601705081 -0.1669761247334267 -0.6421814865923299 1.452153815592291 -1.9091129478850486 1.649687185101933 0.7823447828200432 1.6840173695973126 -0.11820849712496007 1.0482993296580088 -1.9616196854003871 1.2760668333950833 1.6859476067231487 1.9123501750701206 0.030823072135653495 0.7205710382321255 1.2291888604900538 -3.3681345565527945 -2.5206623304959823 -0.00630862306831137 0.551119125942904 -0.4807228761149127 -1.6000098152290194 -0.2000495454941813 
0.530569430553101 2.147202067721853 0.06669418383909442 -0.3296644228697445 0.823958033344643 -1.5188587348449787 1.2291049190696746 1.1331469344536613 0.21277329350085972 0.6891457622643202 -0.4886371446720601 -0.06408207997293724 2.62488292596952 -0.8654990479241461 0.10584152249995782 0.8371865881169893 1.2679031402345569 -1.2681310326836173 0.8797622378772179 0.9302446132871749 1.3176119383059879 -0.24410540458889063 0.9975220367495103 -1.6656840326343207 -0.4036084818884692 -0.9220109352283323 -0.36305212556114297 3.1996707492738263 -0.11080839198877879 0.3960194517101301 -1.2009803808203445 -0.19326580998263665 -1.2435809366674453 -0.2273919897748622 2.5631428653158514 0.05585199757010528 0.44632342387023183 -0.6700276284481822 -0.47615775510656366 0.4422253271645642 -0.21613818750924807 2.2627142222421828 -0.4402156664087208 -0.31037057783966127 0.7186913076648886 0.4246900780949521 0.5323288927468184 -0.42311754627024545 0.5518501839207637 0.6220752871515556 -1.0116541274752147 1.1326317923084988 0.7288539256804771 0.40195805055608513 2.450824707854882 -0.7031228665389146 0.48634616179560664 0.5642773683000297 0.4208419239247081 1.3517512509257945 -0.42989191101160484 -3.155355075854921 -0.21425870737048824 
0.7041447428067946 1.2165682108097546 -1.0690792445149335 1.0116488933983308 2.4837298331944315 0.043817831597518175 2.486408714244051 0.9431421008506469 -0.1102941419998027 0.877159295500054 0.30445187433688436 -0.3095536185626826 -0.32300107729883887 1.0343956052846544 -0.03937483550540444 0.5878334817626665 1.477223313890946 -0.7713561085463916 0.7985144628466749 0.5837596457338109 -1.4265864733639066 0.41699568972320256 1.2968105395784288 -0.2659385681833655 2.954336600351412 0.7301870451765147 1.3276928899784037 -1.0177685945224968 0.4365009232528254 0.8136312885848711 -1.3033295505460236 2.0224582925536665 0.35389214664847257 -0.8388562135544189 1.2065855489756254 0.057718297751212955 -0.4413692212088507 0.054914648182022296 0.3722765741254934 -0.4369447713886383 0.25016004448743767 -1.4612382547454572 -0.17256656024143768 -0.2567109010085611 1.4562369395597596 1.4464231579915232 -0.5885301011313899 0.2347443931495382 -1.1740872774186883 0.8826246015135883 -1.0982254692740199 0.74219019660508 0.7628543949862181 0.7118841329402904 -1.6345071723036702 0.7250368206175901 -0.17322852015594825 -0.4515075051413414 -0.8549697486985952 1.9509345768658397 0.7613772535402681 -0.5391651239418016 1.5627566698287032 
0.46922757779333113 0.10419552565226364 -2.467069529711492 -1.1683292520492539 -0.2530558118905114 1.2784138340677889 1.4026505506198377 -0.09356631480654276 -0.3812562826949131 0.9702368396107272 -0.4913170388020949 0.5189875140630146 0.6618576472187907 -1.2150604139225112 -0.8667018849544031 0.6907344062076495 0.8043424140408431 0.2977614941948318 0.769793866072391 1.6963110567545852 -1.3060570317022182 -0.7370664549970081 0.8671682018655189 -0.19588571600202598 0.8860873882627341 -0.19345285528664236 1.5134451813246061 -0.4729492465153716 -1.2202463329642406 -0.3007571637879657 -1.1615541806905996 0.19482110817128773 -0.5581355985991694 0.5556730090468072 1.269335739861247 -0.8243505331789728 0.20402912098474735 0.3399194490840548 0.15606956314918063 -0.12677855190355025 1.189867409218533 -0.13047657538770807 -1.3011082795416065 0.7036951441030668 0.7368110928136865 1.1055120589247456 0.5563418899629522 0.618001234949249 -0.9868032007832362 -0.10821808741550909 -0.010246938195475175 1.3762495429287245 0.9996250506038755 1.464426607476403 -0.09098175510929529 -0.296088217145385 -0.5970244551301809 -0.5099275570267343 -1.275557941955046 -0.33644944279365974 -0.9978672321583236 -1.387987893480691 0.48078156844733566 
1.886389723958646 0.983903674011811 -0.14787973262490772 -3.026755675787486 -1.4593377426438758 1.5530276559475062 1.7100082338465996 0.027001517304542144 1.75605955396937 0.9185728967088295 -1.857659907527341 2.8983032670210407 1.900021559110365 -1.5648528815375444 0.9967318872474658 1.598485165624152 0.1671472800641317 0.8576856144808 0.24969718666799345 0.5157866327243391 -0.949997660762993 0.23115771793941886 1.7617109965073947 -0.1514815819972517 0.4186082250542513 -2.0830529657675845 0.2682900967966463 -0.9784006097604523 0.2779796935664445 1.6175085640258025 -0.22149306896870635 -0.08660337670050622 -3.0150091176026415 -0.488118206317973 0.40489314017121236 0.7364059214608673 -0.050985521883314955 0.646865720203595 1.5324784453558835 -0.2868398973433892 -1.3848070646567816 -0.4578616571387968 0.14974900857297435 -0.7321451461619368 -0.16513579038354753 0.5623296912152593 1.1105989047705032 -1.6854668034077254 -0.4354212073227597 0.9850337457916997 -0.9261127468374931 0.36427108816310205 0.20330901499229126 1.8509718353265052 0.8760025204948514 -1.4033415370535485 0.7768653379218954 -1.3790042848502866 -0.8681251473628311 -1.2550286229045908 -2.390801274954497 -0.6156540128927618 0.9311658805606299 
-2.419522027443123 -2.446579565638971 -2.840402656270161 -1.7982520161905744 -2.0905695501072437 -2.2797283035485636 -0.9387824605359837
randomWeights-halfLR-oneTheta.txt,1,3,0.5,0.00001,1.0,
