63 7 21
-4.667982032522943 -2.9057227131574166 -1.539471553391004 2.2505178920669944 -2.9828360646629135 -6.208528299139063 -2.1749081514297606 0.9607420805706388 -3.682716966010948 2.584621704285067 7.155400214439486 -1.1313332902852369 -0.7066627620048282 -0.9676393499842835 -0.8563896491459209 -2.611251561193445 3.682938416220006 2.2054781375454384 3.602852384223269 0.9133055811838626 0.5433385157565394 -0.556851293107361 -2.4957443411699844 3.6741969332326736 1.313114035173467 7.929992797312786 0.5319277219458423 0.9490298325112358 -0.9559593008432092 -3.170892029381917 2.298494685993536 0.663929801591929 5.469692150393461 0.28530965778207973 1.6694759732223545 -0.9603691792129345 2.5235864705356166 3.4731728949029357 2.481680015003909 5.30362191710471 5.897243122233174 0.006067196955549692 0.3089718924695708 -0.35168789473441153 4.237301675524115 2.4452292278398358 2.8281776478737033 4.5536524250533 1.6208932042851378 1.3520186569490438 -1.2314455325095879 2.3123805747430213 2.0197440516564353 0.31185471978548973 1.390169363796576 0.09702954878893078 -1.433969353468071 2.6249321984602996 -3.0703061890487815 -3.80993088136759 -1.4332066148359637 0.9066675506645594 2.4765353756451782 
1.3787564680075186 2.6699268355430505 0.29789137439330826 -1.1728534164756854 1.4516895087594217 7.07143917681496 -7.281775947220107 2.2321735067682176 1.0759862018800215 3.3964010091316386 0.2768204703490498 1.7409719528404315 -5.371075890093396 11.528127407150027 1.0365145576624366 2.4662959088206304 2.4041085619640357 -0.39629063491491356 -1.402687249246565 2.6696483498080275 11.429893112562427 1.2919861032835915 2.580578813737766 2.3011982597874057 4.0351077433552724 4.646744498337751 10.092597187637113 3.58393343628384 1.3042152517087362 2.285907946692782 4.950749017156758 7.9597071648756295 4.979055119931137 9.726579698312094 3.2611977928877383 1.809562545262804 -0.18937646339570158 0.06615630248612092 -2.7261028529439866 1.2366950065271958 -0.15812306034873802 11.841329017596435 0.30889618348134773 -0.14235952860026257 2.6113357957711463 1.8196424216860754 1.9473322771853185 0.9857523915680821 10.807304219985905 1.6823807064938028 -1.388834525160227 3.810758533050837 3.4738103067402726 2.042904391573245 -8.882377640334045 10.179163799910867 -0.5280891888931418 -0.9888392845756409 -0.2125185179440754 1.3624928823171727 0.5337930537486364 5.562943949341456 -7.789253425756971 
-7.587853746148121 -5.198418101994427 5.328917674390066 0.35794037112323407 1.8235626834676202 -2.6899224686419427 6.579984444428438 -3.7141180321975034 12.112269496954841 5.18333583285947 2.47043009374691 2.4329483744958096 0.8192795007892357 8.002957561519974 7.087948074667964 1.0063775955637868 3.6320897205730027 -0.028817021072479854 2.7492383919639964 0.09969467791056941 2.5113446418054353 6.6559206415724645 1.189163598170408 -2.018821222057384 3.143420501966928 1.3153975682524104 0.44070939878687865 -2.623726311689384 7.251675937370184 -5.431181554284564 -1.1703916540055612 1.327223836921947 -0.7858463625802832 -4.241476236879437 -0.18685070659480907 6.807945202324226 -1.6181937606987997 0.20948779609979118 2.22960965566772 2.6481163545718953 -2.5311410468913977 -3.266401136873541 5.892910783974523 -4.522297882054071 4.3957109982825 1.149016354837971 4.366511956593868 -1.6584016251155171 2.004815949628991 -4.7109998289909845 5.1812214499545854 5.353813241251764 5.1412710517891655 1.959959701326024 -1.2764820165334387 4.261576794588782 -10.307615768717783 -8.42492836190281 -0.48586048987246055 1.0719972838401932 0.3142767628949734 -1.2623334789259646 0.621110598484178 
5.238618229550937 6.377686518235455 -0.9929566426084884 -1.0001153727473637 1.2488801313859583 -8.345132228300255 -2.802538457029149 5.46275560990097 -1.356967088896873 4.7339023074885205 1.7750608773239902 2.181422942614515 9.758400697665591 -6.290313484970677 -0.1457668701892585 4.357701823855914 3.424426732257242 0.41486419104535577 2.870845211985088 3.5088827276606933 4.5303919279298785 -0.42277590530438935 4.734179264356648 -3.4249385859856942 -0.25233225206145704 -1.18888664342172 0.6311026506792619 12.220119393278608 -0.6701261659571718 0.22487953444229536 -4.453047874405293 -0.824738098839823 -1.6706503935542711 -1.4945437311827117 13.373279465607641 -0.43125217982805886 1.0146386432504566 1.7015579035795638 -0.19047945495095786 2.0614217709027574 0.7512231368921953 9.568551331650632 -1.8661864098035843 1.2648858464147557 3.1165351743062444 2.2609240107096458 1.3176065567691073 1.3576244339219965 3.5603103723997718 4.362368831346123 -4.110642481550851 4.0341227331588385 4.492638757497952 3.728858118391514 6.414546178235353 -5.077004607576056 3.2846066786563597 3.386681026788457 -1.547621460824654 1.3923691214182385 0.3002123924015989 -10.224730831854764 -0.6260192162327411 
4.243277659551964 5.453738034457844 -1.017457189897014 4.484244564446613 8.299365854192665 -1.4995776052702485 13.96278534633616 5.53929049801573 -1.2197429913065632 6.226285979164468 1.8052893186721106 2.582658723948317 -2.7626812670870597 2.4959372139753437 1.0006396485966325 4.214741015820703 4.300151226003799 0.9040838852785464 3.9790000035492192 4.59724294793818 -9.181826352863483 1.2906120023342584 4.482648955105673 1.44968952293838 9.235358016406957 3.594075071665314 -0.1978276555701548 -4.310712046587552 0.5121061901280566 1.8412314661662244 1.5814200900812634 12.82868018977975 9.82330413334149 -6.350630124757998 0.20200061221269916 0.8408442794917947 0.2078772911432729 2.4785134200880043 1.5949993456143234 2.5763800633035805 1.3227091190258824 -8.98780454108443 -1.3042278607331865 0.9756414353645297 5.462574929944382 4.468350903371727 -4.342921321224306 3.2566538490026495 -10.952218722086414 4.3459691935421185 -3.6335153247848053 5.979482326734536 5.8524908946310354 5.098505865125267 -7.224124085272981 0.3886919163292921 1.3492518956760118 1.4916518688556426 -1.955908744988342 7.717768847849166 6.67903902167059 -4.049089079065876 16.51809573465211 
-1.578845862990605 -0.4664630675655783 -4.366221198803468 -4.102184859144774 0.033621390539193996 3.769735136026588 4.404377366783361 1.5088405659977133 -2.4377471046260286 3.5096319594986305 -0.7173135375751838 1.3736048193402173 5.97534827855819 0.08537031528990102 -1.1673645908375112 0.3989817453680127 2.2710316777840918 -1.4482112909303428 2.8264704540448693 8.240648069211113 -1.6744814952004912 -1.4955061777455736 0.09569994827933082 -2.740923146653953 3.303142879714114 -0.009262023264690278 8.707121052643913 0.8185952739451037 -1.6672335917711911 -2.673635480867755 -2.190337798937677 1.3096641146951793 -1.4297722804967883 5.711185457990348 2.3034384730855297 -1.6307368555801838 -3.7872188423625404 0.8955076190591917 0.8193320753323523 1.650242853741804 4.509012060664072 0.7921248249459465 -2.63442644437307 1.1477297693894672 1.3165055698547024 0.8509451841877813 0.3972136601267864 5.5291490571240836 -2.700415690477767 0.2175245209501817 -0.004960209524521808 3.1341546785731405 3.4307198581196 2.1821280384282975 1.3024051527640907 -0.6882659569009719 -3.9382382418479427 -4.807455874264162 0.3616025999216763 2.5439803418722313 1.4649169581128882 -5.248274149162766 0.01582930111105174 
4.908451507882043 2.350436937198678 0.0984525022656495 -13.035828870371969 -7.471624334358372 4.695431136098624 4.218200651856177 2.862867700881389 4.484912261379069 2.885294704378847 -2.932931944677419 8.71314634370101 4.151337704485542 -3.1410660644519837 2.3271358546146557 5.140174777775084 1.3728233644534407 5.395791001286364 4.933175136668923 1.7720631133147666 -0.8458048702387009 2.1822227985247795 4.65981339462482 3.2256575573427098 4.4880669758124 -3.0249207120979147 1.7452084807665633 -0.6148942122020664 2.4185941182583965 3.691369073371643 -0.4624112867111345 -3.3810242183669166 -3.648869844314101 -2.1679979041589714 1.456682126984333 2.1764378511350424 -1.4356383669407131 2.5079500310096052 4.3989712457799595 0.3789947520601662 -4.140967330404083 -0.521232547935345 0.0838746315988057 0.3814727296892817 0.2861610511503154 3.036267584537974 6.737369610639959 -1.785538368063884 -3.0623131115888196 1.270248776963336 -1.0597643990637815 2.5401197042726666 2.8537829805657835 6.238518582273063 3.4300108472905424 -4.945765067603203 2.2035962142579124 -4.169935249824786 -0.8610804746026544 -7.250338933041415 -7.970022368556813 -0.34192686779848014 2.774440599483636 
-4.954306476094583 -7.4379751212175655 -9.736157400580144 -9.042640788136065 -12.27576107357304 -6.797152397237328 -6.130497225453691
randomWeights-halfLR-fiftyTheta.txt,1,10,0.5,0.00001,50.0,
