63 7 21
-1.9305587089824183 -0.335648990300106 -0.6173219734706752 0.8039927433253417 -0.9921733482770496 -1.5544470744509313 0.3614544530478756 -0.9892168928270757 -0.08821436472799571 0.8542037635863875 1.4253536508111078 -0.4809841352542267 0.3835364486777397 -0.9246509998011929 -0.08054365713732436 -0.926565032893554 1.125454634095584 -0.5775015230666798 1.4898331105352856 0.6096141157736743 -0.061797429372277835 -0.4600288483818261 -0.9803678851922014 0.11501235233456553 0.12151633766150749 1.6875008642015061 0.7909595541700325 -0.771932186414104 -0.25356930584159165 -0.5928175164180693 -0.4159905576298236 -0.39363424197139396 -0.4891135157567664 0.9050644538017434 0.30868776828605937 -0.607230738312802 0.665079615479525 0.293170248485098 1.6790157771743566 1.6875014652105313 1.7985736835075548 -0.5675425627797426 0.38688566312997397 -0.20547894234580877 0.11811340328329312 -0.5067996027816567 0.20928120467305245 0.15213309648021112 0.21323976611830875 0.506508500723022 -0.508134950985999 0.28062974358467707 0.2062213459654486 -0.8808312954830837 0.49187333651844967 0.7838564672989226 -0.3865187392338866 0.48372770180283897 -0.8654526808832375 -0.5730489104097111 -0.7923875615020094 -0.28329456467009395 1.8398707436907147 
1.1622382912903464 1.1400586946769236 -1.2898289859792165 -0.6419566509008793 0.2863903235029106 2.084489254883187 -0.9658191429598573 1.142037600549259 0.2107371753837084 1.3779185979668704 -0.24055324307844472 0.7255847092510249 -1.0250848289544348 2.7684269829043773 0.3125088467699696 1.2865274423346984 0.583372995193849 0.43818163750539707 0.9050666018890451 0.5052109994807817 1.7465584191475259 0.45335530446510863 1.2543836086819662 0.6303878732932899 2.2049382499490395 1.4647629244569655 2.46747323196242 1.0219302913537556 -0.25474296909907823 1.2249207175339678 0.6911470632380312 1.7170116766324126 0.7616041812973391 3.0194586432577055 -0.486204077200993 0.3642700876707903 0.4882732125358539 0.4242938371459879 -0.48018675456280935 -0.05043210395194686 -0.16293946869104703 1.89469868918678 -0.15614079215284848 0.09731406918308538 1.1085659428490886 0.5683746119535305 1.0497030860874135 0.37291654846509537 1.715220375985286 1.3218682908449353 -0.8328294874365119 0.934783880866971 1.4531807128310243 0.5581443718987638 -1.7392386002754416 3.088396910333633 -0.2091038854006395 0.4228546797041143 -0.5252069710795847 -0.21967717075822724 -0.8959367328943978 1.1478210914092224 -0.8975376700648527 
-2.7201470030592154 -1.4975249187664386 0.36001014987834257 -0.7018626473397054 0.1377043197148501 -1.6025257288556083 1.7122092979486994 -1.966399847933351 3.6696461272289014 1.5294423207342924 0.7916876084086424 0.9231527560755024 1.190020730388933 1.581755353308226 1.1821358766196828 0.2948464218457202 1.1026476620434327 -0.09647564435974076 1.5942397077970965 0.9708391839716435 1.1428800169758513 1.7774002449188964 0.2532138219293264 -0.7665375920315536 0.6326699994752261 0.35655376664776317 0.6381055866480878 -0.743135475870937 1.498673921139655 -1.8978399198824818 -1.934425546840651 -0.9334816036429034 -0.9534085094181095 -0.41505632410635784 0.4946423449035926 1.3867299402394686 -0.7406521640539079 -0.672183777787557 -0.15605030417575572 0.31538772773508406 -0.3076090453613257 -0.038633763697508705 1.0593405198118007 -1.3744552516073545 1.8762917453893344 0.3399363592471838 1.1471389114589425 -0.3649754034002348 1.5049968214642204 -1.5767498918306235 1.3972689095227708 1.0080966558263411 1.5874995366327633 0.6670272393031462 0.060408014613008376 0.5573657017510483 -3.8286421396856256 -2.6142473277824645 -0.18534552088488399 0.09937359267258217 -0.7915976724331251 -1.9482591677299952 -0.5402732000174801 
1.6261410131498821 1.7768640732003513 -0.5894963014693897 -0.9343064649282486 0.6927826183032262 -2.71321014082433 -0.27324901251863554 1.1133435369368987 0.31946315021012617 1.5422984633074885 0.6121718593339911 1.9665985429371091 2.030175080570836 -2.211770919072087 0.5434551838545834 1.1372342314966528 1.9480626307771782 0.2178292786741578 1.4487862354871188 0.4276690009591544 1.2961604881601547 0.6287586228357236 1.645322873754727 -0.5074951826500669 -0.40868286311496815 -0.5832753590402908 -0.4335705363085889 3.104414725716762 0.9219589823606291 0.0037053318816904213 -1.3380001748516328 -0.2977115620232198 -0.5564861061737068 -0.6700610501152751 3.238989582182416 0.5973988902315899 0.4997288551620107 0.3523388677965795 -0.5756827619594334 0.292454152325746 -0.41622144105332115 2.586717242980549 0.8785826937485139 -0.27124890644343036 1.6899772006276241 1.6071782939393997 1.36659050729439 -0.08175192293576905 1.4750691831522382 1.073268276681715 -1.2005453155929757 1.340225966319223 1.0474885799568447 1.2939457721765795 1.9031004575244803 -1.3136916396388036 0.13364125094817036 0.5571627932565013 -1.7607318204234446 -0.977036799773634 -1.167822031311387 -2.545176611466129 -0.09233736973085938 
0.6603901214777688 0.7151131139705882 0.39168105742015724 0.9391057426282327 1.6212744966416843 1.117669557352408 3.1751914590682038 0.6636937789568482 -0.4245226989365505 0.9117902622087279 -0.0458774254617601 -0.35456800800548827 -0.7107584140582315 1.7838510977777604 0.49416512871796514 0.9297426550425165 0.14764651954111874 -0.17266498228027927 0.4446737291596361 0.5791584001242054 -2.328159324265908 0.15734716954309347 0.7088976786589842 -0.474350247427048 3.659636167549697 0.7812190833578672 1.2919575966347943 -2.3839310795611692 -0.01925622614691136 0.08778167596533448 0.9005244969453134 2.94424625466851 1.3010939106048665 -1.6498875399876147 0.4519464188416755 -0.13887292511848082 -0.21489810261211595 0.4500398964323572 0.5656072953643809 -0.3665615299376823 0.13040032769150578 -2.372586408922427 -0.9444087059329482 0.5817274140476664 1.1264752310111392 1.4331260382564786 -0.5787347588526843 0.670212247847632 -2.7031928705664505 0.22209823059417233 0.34118092859880966 0.9437423293342002 1.0835313125012842 1.4609175372275005 -1.7842622080534492 0.9112611143271757 0.46429694513677466 -0.1554565153439894 -0.12466436813191162 1.9605204180384115 1.852917558613448 -0.28252712130302016 2.6732864087093957 
0.12857021141151015 0.0769831813780455 -1.1834571698876628 -0.18500703630955206 0.1627144183773659 0.9995485971636028 0.4523405515633836 0.602880078330871 -0.7314340196925885 0.6762507880518933 -0.2748596972501347 0.465044307867318 1.5848752211084196 -0.6310178408638761 -0.2542054254514635 0.6468829662668405 0.5239225596469121 -0.49353373824703095 0.17365339408522584 1.1923029514439887 0.0630592371780837 -0.17240315827083819 0.9023619748442213 -0.21785246196297348 0.8397843788063999 -0.0506770895357197 1.1613926951086526 0.5045090050672325 -0.2777360631264516 0.98728467846896 -0.8021072295898677 0.16608830884636883 -0.7296387018944678 1.3896306882339111 0.08721779980837663 -0.4483852253462587 -0.22333714636591384 -0.5420759011455333 -0.3644393371452548 -0.8825596847790422 0.38264659859154704 0.1237719939806563 -0.21562567633696184 0.9657743624684837 0.10205526796192665 0.4257880723805223 0.4038260053199435 0.5876268655823508 0.45169993743420744 0.7887263900142583 -0.12869053164194344 0.7853788237156665 0.7893340065365013 0.6450993314144429 0.3710809118201922 -0.6099990667042148 -0.6110985464358252 -0.8406795634554176 -0.5776267615632165 0.8732927815500151 -0.25462256873120903 -1.184611136387602 -0.2541172263058781 
1.5945833162210277 0.4113587825746996 0.21231082489830433 -2.5105507881959106 -1.3422278711085291 0.5673137937814574 0.2816824078481892 0.7661848885049888 1.176445012802429 0.19829289571672204 -0.9615470589222531 2.9279581140748343 -0.11022763162898841 -0.4704090125652659 0.654953005592726 1.4028759015076455 0.22515860162543844 1.1390837128863973 0.8745101548121812 -0.6211142120843403 -0.8780974687363763 0.1997026971111755 1.895626293014562 1.3236142482401134 0.08856999502346596 -0.43508577066314147 -0.14012263107137712 -0.5751392786500998 0.8066090665889405 1.5910303527394305 -0.0012579059617254806 -0.9234669851148624 -1.1640971514328429 -1.3775913418351813 0.3783548889379946 0.8326623410653617 0.7523678102648819 1.8790729139748936 1.096217371844118 0.8312374796260786 -1.6466288558155493 -0.91898606811955 0.7301921927186527 -0.4500510481192237 -0.5963467718718294 0.5194058187341275 0.8176413197743058 -1.102463841930005 -0.23739344131964935 0.4422002452294642 -0.8486391812784052 0.06728115209677665 0.6331756684531076 1.5600370427133126 -0.28099748965953364 -0.7167045437799765 1.1033071599170787 -0.8018633283710507 -0.8160376391789164 -1.4444032829539202 -1.8872070330737643 0.12081629666434546 1.9082544126936223 
-1.2927219564417514 -1.9208955651884234 -3.1633545016814884 -2.815988518217171 -2.2927903389953763 -0.8446057919018364 -0.7778836720693512
randomWeights-halfLR-zeroTheta.txt,1,4,0.5,0.00001,0.0,
