63 7 21
-1.1206038467469988 -0.5548332010877051 -0.21846297612779142 0.979254313442325 -0.9189926590742223 -0.8777027026547742 -0.03602184027258459 -0.5843602763308328 -0.4613131252821183 -0.14287309937984105 1.6540905353854203 0.16510649365984442 -0.500762488164327 -0.49975845051780243 -0.6337670304811878 -0.49117423034313135 0.30974496587040257 0.4903809304952169 0.6127897209645432 -0.3566168709060329 0.058962604860734125 -0.16801892186738332 0.24288221955344969 0.5351413686929275 0.1415561659862593 0.9950050682497188 -0.32155651221145976 -0.2537771070997358 -0.3114013653270232 -0.12887482229219516 -0.1725289007393439 -0.5591175874359309 0.7383689908936688 0.1400472736920848 0.52556308703209 -0.7336077081340033 0.9834230774288766 -0.09925639448794299 0.9593808614979356 0.5691646088237727 0.9230684566668114 -0.2954117941484399 0.15947191079456058 -0.0453150132991168 0.7747896270058595 0.19086414980956834 0.31492411916452834 0.02893546245431211 0.05383350443619794 -0.13016035401614945 -0.6413870799947979 0.26933519147087726 -0.18292014030954562 -0.2754140366433828 0.4993410383335858 0.36482833236348755 0.18548445623508059 0.7099366915125805 -0.3640398503610047 -0.9623982482880422 -1.0912020173623227 0.41546483445894633 0.8786026451320474 
0.1669265375030914 0.37908021520413104 -0.5265595567203334 -0.31032149389157326 -0.23578521445813516 0.5388267650546699 -1.4700723985669526 0.4282138632723552 0.36609590792493685 0.09268553625573106 -0.4167283527025306 0.7250879708569739 -0.04803273858882917 0.5996658863216174 0.18991840581961728 0.36700714170930726 0.7138143777863636 1.9377524261865453E-4 0.4501235731404325 0.07171373553416316 1.2170200233365238 0.3597831632658288 0.07922369525947737 0.6126279891729604 0.25795912486535433 0.5472019960663395 1.408008114468871 0.9976287064461502 0.00239470747577597 1.246822164659271 0.9826326114002653 0.9263691165328423 0.41935340277625266 1.424568420585481 0.5058044029487637 0.2358746682346735 -0.012926145777707343 -0.13214210470192655 -0.5364926071650692 -0.18922787351066295 0.14078498046787058 1.7021491394458776 -0.08467449880749567 0.48234999424431846 0.9564851970083912 0.3501951681150308 0.5914608352494835 -0.23024735194220225 1.120557998319474 0.7448222546142991 -0.8641669692473117 0.4269613713058754 0.32197285816345744 0.7320327291845061 -0.9378155395721475 0.6508177493813333 0.32198500288743903 -0.4915440260098002 -0.7510943698395841 -0.02180407014346697 -0.394338477161817 0.6256493672843226 -1.411666105534985 
-0.29977508719829604 -0.4365233244440685 0.22756767816667878 0.09127021874643038 0.9571200680630066 -0.8742318460024471 0.19037758673579908 -0.05361195477871228 1.3378737449200304 0.4436935284952247 -0.44641538323743957 0.8600118419576096 0.01823069560046331 0.18575518757982556 0.7663151390025139 0.45623874074293636 0.4307137414804918 0.16803551737698086 0.14683091425605033 0.28263039775056453 0.7026697550868802 0.43430918774073346 0.5691716518802982 0.4004459083717272 0.8150275261945288 -0.46714258041871615 0.36063709983875003 -0.13846617196292954 0.2064068649166676 -0.3447020952169706 -0.5288260815409155 0.3119031358128742 -0.0221163770750189 -0.9775291571650088 0.04702215578942759 0.9473463789102373 -0.18437187751612738 0.4033977275010988 -0.35648461360886907 -0.1869118692969436 -0.7582008174195252 -0.06444344734115282 0.4457170952506726 -0.5127154590992098 0.32849007828946997 0.4781929971747788 0.530615323362245 -0.48269886914881655 0.06518645303625126 0.07511462127657342 0.400886630123798 0.08804696872484508 0.15711039218892675 0.2293907489583369 0.2477792339155248 0.2932457366971716 -0.8500106929006068 -0.9003919459068261 -0.34054529513582454 -0.44662485602704594 -0.5737983995806449 -0.0841923363278354 -0.21883383628858621 
0.5479158939419566 0.13295692448180807 0.004940256829766954 0.05644029621794955 -0.11524579774656496 -0.6592149369442938 -0.6310305450948408 0.7242908729189343 -0.04332633803525987 0.23103851652427665 0.4807095228574243 0.10721357695936096 0.9471753384572279 -0.5133114249730151 -0.057282807777502165 0.564958533174857 0.39761312398900184 -0.19764972452352203 -0.043448948445957924 -0.025024782051231043 0.6802891586403526 -0.6288517501468152 0.5075984489292411 0.4835495440503479 -0.03381330530475479 0.5804914902869706 -0.2075201323629945 1.2261190797180062 0.05260549985293428 -0.1523040450566756 -0.15927834576802813 -0.7275876853165022 -0.1533715279825173 0.24612015776271146 0.35367664233721574 0.03740899985740109 -0.23773737665948969 0.0734557472110946 -0.6137885628253166 0.6657208883914297 0.28226158298474047 0.29604116877694664 0.130468591870614 0.44484287747939766 0.46005063926188217 -0.13345616534793991 0.7260499630947695 0.1318267516022953 1.1928394053024713 -0.2429180244593231 -0.28274198985444654 0.18828111948158543 0.6839218207665149 0.6758342954698746 0.5055692741653869 -0.689797312646021 0.6303263091395784 -0.15758763537958553 -0.09569511795954277 -0.6880047267142373 -0.1786062109640385 -0.614253377496676 0.19250068734050352 
0.514524968021195 0.3979640402382385 -0.11373034521753567 0.931293494018809 1.1662522251713308 -0.0712883736327019 1.7984875749651397 -0.11767712201976233 0.3399559801504749 0.7366067542955734 -0.1585774234913997 -0.17462115782465593 -1.1140410361285964 0.4279717874112472 0.4419678272362719 0.32053272352982587 0.29539611145205746 0.2077369782293409 0.38542580620004374 -0.23340324574585491 -0.5338279571729684 0.34337231423674197 0.3813320759077504 -0.49152228331304115 0.48748160946561525 0.09993535395300968 0.15359448800418873 -0.2537720568213805 -0.05121620625557777 0.3427990659329173 -0.10273576080498048 2.0170651578826817 0.7097825790071869 -0.2756506414245501 0.5155430164868149 0.006982914531113438 0.5298831242398467 -0.6280800689524546 0.1531702363049926 0.2151757374181127 -0.051245079119232595 -0.7235427959167228 0.1761230658086772 -0.4576455477311002 0.8340485608061183 0.6448855149787165 -0.08739854610138553 0.20312855309786482 -0.4320241232880796 0.32386942903133786 -0.3334410686340079 0.4729842525010468 0.9313779711253756 0.5286455574415163 -0.7574209114170573 0.671988390825322 -0.13793049017746983 0.017824315185726025 -0.020312624712678584 1.4601998429271732 0.41366137946632586 0.0435373116742902 1.5817255975629956 
-0.07827149950541112 -0.12396667460633515 -1.1467926917405065 -0.4331215789972944 0.09610314361777461 0.4528022846871411 0.3021094486054199 -0.06159340293377513 0.0012382353648446864 0.7345329861972875 -0.04515374679409645 0.2257933237485541 0.6609996165239479 -0.3363127203553927 -0.35629035268661 0.7205056673615943 0.3299096065511111 -0.2838006406884178 0.47334940757757105 0.7255998591273655 -0.19022123776088617 -0.08721374855612196 0.6504060764025956 0.21460375611314841 0.05882685042935154 -0.1864187799902649 0.8691977654925582 0.3746164428722697 0.2398076482013316 0.4582791177461669 -0.5135980761879457 0.32052099684811064 -0.7156834340091448 0.4337086155273583 -0.21103850353626274 -0.7474425943881682 -0.48762558989729476 -0.7482762540500413 -0.7380154899889098 0.09610491009829025 -0.16045601807169874 0.5025324223399339 -0.10280520391865078 0.21037376435441013 0.6282507529170028 -0.1879424510636074 0.24753081368795493 0.5818087973729972 -0.20435684372759344 -0.02334819360703766 -0.3702214232463005 0.5283581071087978 -0.12275881051875581 -0.2255353953983057 0.10466376031227165 -0.6676378156447251 -0.13621291912959121 -0.6400146234975003 0.12261704250907579 -0.10733007804275041 -0.22187459943291465 -0.6632350519262447 0.013465788823617708 
-0.1103962438701086 -0.1769575939856527 -0.9304054318837016 -1.14956251789513 -0.5746000151061715 0.32598192927603065 0.574655559772751 -0.16076350029349185 0.6313450204324844 0.022450516436609336 -0.23630084250501082 0.9035928342882996 0.05922561794043513 0.10774408357017873 -0.13436541906188793 0.16385005239514883 0.5132138643648231 0.7183958926600774 0.07521850679219477 0.4015957561985194 -0.8250138512213078 0.06117789242835103 0.5293095466888876 0.4653854740399408 0.5452566639940094 -0.21236765847523165 0.1209151929656117 -0.10679676224871304 -0.011134264258702786 0.34194715916023966 0.27459675733533084 0.05417978342923324 -0.8987731543540787 0.22971546451275282 -0.1219129047935652 -0.40255941717197663 0.07585028937668836 -0.3439039900548607 0.6675150629381359 -0.23744236016488895 -0.25417432119386396 -0.23588184053194683 -0.0025807205305665715 0.15393042555034808 0.9965594054607745 0.7673510589296176 0.5917733476402773 0.41052298294063816 -0.6972729849243849 0.11588378917897191 0.06853360990547053 0.8127358843709441 0.7293153023865511 0.46053947196956924 0.2577589170367217 0.2597928658797589 -0.14520820353921016 -0.4125269396397223 -0.9078575111725794 -0.7761257998019799 -1.2761453448708897 0.1837789371638232 0.13883296110761556 
-1.1472187015913455 -1.936984888038367 -2.145468030498404 -0.8218919106144548 -3.3718645985809714 -0.7761284210132309 -1.809309988421349
randomWeights-quarterLR-zeroTheta.txt,1,4,0.25,0.00001,0.0,
