63 7 21
-2.2319386382386455 0.39747096604506194 0.28125630302338767 1.550241545774142 -0.2662144957937791 -3.958003507789254 1.6058835422830167 -0.3275747333976641 0.3023113922893286 2.2694698798987494 4.325962959465236 -0.3464766196386291 -0.3462193274786389 0.09893600189844887 -0.46831238582719614 0.31823147650104544 1.88568549309622 1.8724914021899708 1.5643691071305406 0.14983348961496024 0.14578063593129875 -0.34623260812497425 -0.3386868967373666 2.071059190083131 2.3044330860116586 4.226801658148492 -0.363880847330301 -0.3694789895500321 0.4965174090979585 -1.5651691984048135 2.4484390789074335 -0.403529908868447 2.1686298156716153 -1.8067369771393804 2.463517663517692 -0.1800376152541764 2.104307638756227 -0.11293368271505866 2.1793777931853247 2.3711275477098512 2.268105025140269 0.020034540225381647 0.2083021396839715 0.37508478494185193 4.208789769619728 1.9218699671987913 4.339301713489751 1.6781513051813963 0.19259032077367655 0.03874753473374892 -0.42044891409714213 2.460341007832005 2.1993356968529416 -0.1659970559584628 2.1753092514096872 0.1767518331093343 -1.5925041829853184 1.6078125117623991 -2.2533663706867886 -2.2417074521454854 -2.1814570611318027 -0.39178966162664697 1.8352347122230022 
2.226719821068767 1.6505136842173784 -1.638893306857144 -2.1740434483814948 -0.17278643835351448 4.0882054321234875 -2.2888905019293553 2.23499423429972 0.3738986152055128 2.385547347879022 0.44146642605192987 1.9570733873150266 -2.052773686976297 5.730676275615504 -0.1338198438080318 1.6132629301695793 2.0735023574056877 0.09766034642594601 2.1246598007531006 1.9604507766237043 4.1487078777663005 -0.0830299168606532 1.6743899998150562 2.042089442369691 3.863183437723669 2.046044855940054 3.538262597275075 1.51454084278285 -0.4020901167586781 2.045112475946967 2.051230213457319 3.666384675629242 1.5687835718555383 5.85814585653024 0.2972302879843698 0.00840637261152688 -0.16780229193418217 -0.12518276563334485 -0.09513301603427804 -0.04641749956448793 0.13340581282035768 4.006537334612214 0.3791278832695819 0.029232444985734407 1.9785570902412815 1.8481430291192598 1.6864506361071359 0.26760756069096336 4.241957620683941 2.2165236952408423 -1.6182550206683555 1.9065396565019763 2.0820254737771795 2.358453471534299 -3.8314868275228666 6.298373072855474 -0.06742831467731558 -0.09787760922047584 -1.5829976126407272 -0.026744567893491222 -2.1395464386820033 2.190336587670672 -2.1696395277907854 
-3.363689916636765 -1.0219157472464135 1.14505645887321 1.4537993161474057 3.45200394472265 -1.3968600110152405 5.479365466296391 -1.0033342154755367 5.3365586058565775 2.6456077045355566 0.7025075088702253 1.1393387837817976 0.9717925418810092 2.7807780308151413 2.9870681342251806 0.9699836035357232 2.789517247604263 -1.0005970680726293 2.528618250384797 1.260371669361101 0.9440795999576705 2.620467238777289 1.2689892432309695 -0.8181729897717469 2.997193031593687 0.5537625096623486 1.3434490965848491 -0.7832085388460479 2.926416149809908 -2.9169538472235583 -1.1129365113897136 1.2989977307547758 -0.6256983413509714 -0.9647054614597597 0.781815893842182 3.0755919241081093 -1.1078477678142975 -1.4224641238174067 0.9035986062216455 1.3261477936825714 -0.699515956003935 -0.9600252013312391 3.436976874838747 -3.003633094869736 3.1877132498353467 1.1025977257449697 2.8656665104912817 -0.9916392012595776 0.9992439104724928 -0.5978261680361125 1.3179547006232077 2.994761953948383 3.1310506841861354 1.1175439196126296 -0.9511670081974666 3.3705129186086653 -5.0649868368163435 -2.626684682178695 -1.0255998651902272 0.7040337853988758 -1.4323267300566727 -0.6344421594004077 1.3391318701229986 
2.169750567134794 1.9578223629164269 -2.2070965650994103 -1.9551260147647966 -0.04933493256744392 -1.8782199122673733 -1.6178098836035204 2.357976556528471 0.37048062400305604 2.0040072569320957 0.21865966864754904 1.9636530225531352 3.761096533497459 -4.4110836608699735 -0.1215899602804782 1.6542942099832718 2.409178519757701 -0.10243836445364352 1.906394405513242 1.6492409336763645 2.3352349786136406 0.4130235894267982 2.1531149847743323 0.07124376857306691 -0.25359240029253716 -0.044697270860726945 2.0544558495858922 3.888561016269164 0.4149605631868012 -0.4578693120629507 -3.6194355636277935 -2.128690792408917 -1.9598845263485085 -0.13316760731797528 6.4259797373481256 0.47103257814483745 -0.01220586126024159 -0.09965011766998177 -1.9092546891446185 0.1740585691095622 -0.329004978551648 3.7817650050491887 -0.18896679178456055 -0.19794085340813217 2.23294300499981 1.6001349438332528 1.837844995935312 0.4373383528151331 2.1258167071532856 1.8901802552146016 -2.0663560064040265 2.1357183242475486 1.6397712089661312 1.6653429140155156 2.159313134782126 -1.6435020076071134 0.4301382857737006 -0.40604253763473874 -1.9423790091735913 0.08680957068113182 -2.3848996994935447 -3.5122449284853525 -1.7955822021003556 
0.07179809472626175 1.616647469745398 -0.20492718639523577 4.332416058463375 4.145746850187774 -1.51028641493173 7.661202658621111 1.9841726912336901 2.106598528135607 3.6495383643844037 1.871530094702269 -0.33686287124631953 0.33270315798036876 1.715530442139782 1.8607511957396223 1.6694612074065183 4.387585401770324 -1.618428825720538 3.8515781847291386 1.794147219510227 -4.136632891637396 2.3243242626807525 2.187664367745062 -2.2486664911111784 6.109330022823044 2.010762190067337 0.07890629840793206 -2.4037622607997786 1.738227801631492 0.20694171398204197 0.17565789394022158 6.1929973432918635 2.108619754286683 -4.415212436432737 2.334679536062463 1.6569982285022498 -0.18158710540528933 0.19961978435526806 1.9171853559399294 1.8378844339563076 -0.38703629813083307 -4.2316129239014515 1.9681396753137572 0.3322927538866378 4.0105038855683 1.6170447598790059 -0.33400643970033395 0.219458309525689 -3.621680575042623 1.8852426320973008 -2.4966585636374843 3.698188106533787 4.155025939957414 2.0774646164367727 -4.238483959498643 2.0703018116149687 -1.5925528121860482 0.33198852739806894 -2.0240698319963712 4.063489802630469 1.9350181858705273 -2.157489067948504 8.254011519022448 
-0.3097021165143299 -0.2879910938562267 -2.496132722227401 -2.0469576681558226 0.3710907705706816 2.144386249432551 3.859352902242125 1.586459788856929 -2.3421591439655822 2.286679373733347 -0.15399035605793499 1.7219497468730534 1.7193750616995942 0.22307373134755837 0.12237371086719406 -0.46263322926376205 2.290737999438617 -0.4082914104476134 1.952449399823493 4.210872988717439 -2.1612268723840025 0.046224822668174737 -0.08232233980749992 -0.4956379839352403 2.0742702321162456 0.31623609909107064 3.760520037519601 0.10255998841649605 0.343912754124184 -0.06561852887056618 -2.3331820274965613 0.28766851439827956 -1.7590773565390436 1.7923429668021322 1.7403754078470934 -0.11023485893837592 -1.8897855625920776 1.5641890900384492 1.9007526053220158 2.09477949317455 1.9920346721127218 -0.30736886597298163 -0.055952309764864205 -0.3852860828413629 -0.05252385894086142 0.07225636048661133 0.046481493516275396 1.9288794215292533 -2.3600786335146307 1.7835278919796602 -2.438109396154651 1.7902694232172633 1.5083827413042696 2.232318510786514 -0.4332277204528112 -0.0422051042989704 -0.13812781587001943 -2.1680283004102 0.24031411998326124 0.16295665428819484 -0.2516542975514753 -2.07164023909419 1.8318805628175967 
3.507433462412897 2.013135669140066 -0.3352830753047342 -5.771999010444079 -2.49692023492007 2.3963517260814156 0.3521712243536972 1.703252941040489 1.6503807265146713 2.4168447632342343 -1.8384771009284093 5.6565371132918365 2.0003226584399645 -0.04273627184340478 0.250546567211013 4.079758794267995 -0.1732127123963365 3.500343197394213 0.32322787359991945 2.0451445620985567 2.372104165017255 0.21400123512963565 4.103588164111466 1.635117026019499 1.6505953642458584 -2.4149317964180925 1.9103628421337753 1.6478662223109808 0.4839705562217125 1.9349288468432118 -0.4696818249447663 0.17410737327771253 -1.751904349086629 -0.2549137161349546 1.5342799290732145 8.658965286385545E-4 -0.35242880341784577 2.096634129259551 2.1574864378181453 -0.060267692947225227 -1.7972779043555587 1.6848483851945977 -2.125332563117025 1.5998814047058838 0.03301285103706286 1.8085881564569513 1.8402899061915803 -0.16974875603168105 -0.04843231594248221 0.4539202064692791 0.4357000216764577 2.0406292717192627 1.8473885300144224 4.092359487475845 2.2674304035994997 -2.1220052613775433 1.8250277310019056 -1.9036562366190601 0.0947304953540491 -1.7176826300189365 -2.4041131386443015 -2.261962465992484 0.32941682736531464 
-1.677050569288815 -2.1686991023654447 -2.8680354674800768 -1.82143004797005 -4.033199994420151 -1.684359237235473 -2.3513685141154266
randomWeights-oneLR-halftheta.txt,1,5,1.0,0.00001,0.5,
