63 7 21
-0.2832921606090786 -0.6181010466621241 -0.6054834961103982 0.6146023709895402 -0.4934149184415514 -1.5787861507423373 -0.3641799553266927 -0.42639878836847767 -0.3689473476117475 -0.14726028679764136 1.6185974006569224 -0.37633132802550606 -0.7323197824568676 -0.6831374745958381 -0.2563129408701559 -0.705468131978811 1.0940086822873463 -0.0700772199661398 -0.13225026506400694 -0.22153262164325793 0.11276734093618834 -0.3242418363097883 -0.04792850209324695 1.178499552094887 -0.7121548487665378 0.956182745692462 -0.22285890197330938 0.044212682624381494 -0.3287782128938279 0.05018904444212091 0.4036957255729663 0.24623292908757044 1.0848544051525908 0.5295110153201056 -0.16465604832003478 -0.4460874333490602 0.3365543067212212 -0.24271283987759706 0.643538565152495 0.8754753712465854 0.8951768836674294 0.456915210138123 -0.34741387556380576 -0.004140949420575635 0.9279875226632028 -0.020209363460388374 0.15054389202236085 0.8047165942497658 0.6118551973591693 0.3234735581162599 -0.5087307086152392 -0.05448456279360048 0.6699641209427837 0.15592951201302818 -0.11644939610031801 0.03639959447999386 0.1570234793127615 0.5868413526126456 -0.8748380408835741 -0.3855432276451912 0.11849383103482491 -0.306408438426478 0.5328499615609034 
0.6331381667074586 0.10736490878055838 -0.4063273083961897 -0.5109801949458085 0.1632446454533898 0.5439239033328882 -0.8312233735129994 0.2334455032760262 0.08315658055597586 0.5239601499955031 0.4176104936623265 0.33131863076410895 -0.7657147479706203 0.6695271411582111 -0.02126037895435251 0.19809826301300826 0.8635694072000053 -0.114088917264902 -0.6571619793283491 0.515282338712331 1.3423843894804057 0.44239772862948934 0.7840996044594006 -0.3709881739590839 0.6341936806334244 -0.04925456627368341 1.1782242853409175 0.1703708689353417 -0.4182263845518266 0.5067754946815892 1.0282983250924407 1.7140635784993332 -0.03136801071867701 1.0583428493536158 0.2943027015610765 0.10562533303748889 -0.2757202138111434 0.14205179984192506 0.4276470520868598 -0.31794785417539706 0.08930460316373712 1.4914323574477881 0.34904118828166375 -0.013290898886117675 0.033733312408641414 0.16089539012480047 0.4761797798258063 -0.2633951726072661 1.7309605505460177 0.23263531846351515 -0.6928697743905113 0.23859576729233767 0.4295586617932714 0.8777514100432313 -0.5040223121204888 0.6708103641493984 0.13657394512395193 0.028209888162627594 -0.18080482371544737 0.14656045280165986 -0.371546968837256 0.18287051513931385 -0.5756290148123636 
-1.3104681314829518 -0.3313464310116647 0.02733929372192956 0.12813053666982333 0.3930599493726309 -0.7429762533403665 1.0294245093752579 -0.4680372947633257 1.6860199377547453 0.8963197753898859 0.36342339449879235 0.1486520270901821 0.5165434880240147 0.4620598927099414 1.2451132621099887 0.007363429825451573 0.2515118699795419 -0.6497951810804377 0.40648884744331615 0.2531280286377169 0.1719697293448048 0.9424613337917211 0.31759408003420153 0.016165701838025015 0.9052694050198007 0.4580616630445695 -0.1342704780714845 -0.8130145635829338 0.2554016525921621 -1.0269454319363494 -1.0460202362591124 -0.32043009466262984 -0.7232413329117708 -0.31400352648388796 0.2554196530015497 0.5784259323447363 -0.14838655986171367 -0.4119680716793577 0.6650219760858189 0.16001054265051595 -0.02211083020340232 -0.9442955591019162 0.32820331810561876 -0.8449821159661832 0.9513310276909674 0.5264405146701114 0.49310898643539236 -0.7247606780500636 0.13498211943739868 -0.6604991659575566 0.3331519689349227 0.46718518423069155 0.5489043410176093 0.02929457922667711 0.31698462429688634 0.5743837440631163 -1.9156264274774975 -1.1566960824241086 0.16499646568844661 0.5912491767866587 0.24931830439444846 -0.4765321438084794 -0.0754052352003316 
0.48555945270679624 0.43772565493202 0.22093946866717706 0.03468029570981224 0.2634482345130307 -1.022478142429232 0.29546732949447385 0.7992339450686365 -0.64421181574746 0.747426643729033 0.0314547164368999 0.31621519820165167 1.4204662207779295 -0.0353736328711961 0.2840323857096144 0.33537507130215816 0.780007194653786 -0.3411086832140793 0.4814794552831161 0.4434959660697102 0.576304545312023 0.21772857751397412 0.1452883949864635 -0.2752550032954715 -0.6999300549031526 0.05678005674286113 0.6884060946948105 1.2608875513014366 0.5470826616469273 0.21212702119619786 -0.40577908183840716 -0.18070853170913814 -0.26289069820809396 -0.05098604789507444 1.3532793759553519 0.39012969001333353 -0.05359652005890103 -0.439393550418694 -0.15962012022802596 -0.1710846763291971 -0.049016488029024696 1.3907488948289282 0.15160556816151338 0.23647948291233 0.555425976892105 0.2562900419096238 -0.21097802497789997 0.36572954821808157 0.7907016332180102 0.3673950229439774 -0.5198205502423284 0.7830009782421014 1.1046194982059614 0.04836521006232131 0.3502241506260855 0.23154349106984096 0.2397336591968392 0.5468377836424752 0.12633586557765197 0.6456580373076968 0.09610671963597472 -1.5141609245907515 -0.4526254882043944 
-0.23988736997303595 0.311017030114054 -0.0739683452658152 0.3618665279785479 0.29550110384056516 -0.8355199895183534 1.1164470262709854 0.314620117829131 0.8392341864397409 0.47702012208539524 0.9771645232816017 -0.11483758316413828 -0.9778546503140704 0.21210156747261366 0.28746599768668757 0.02961697606640179 0.7432602077644763 -0.3821544598040355 -0.025465067336782887 -0.2413582616907558 -1.1333431871959467 0.04734482127026496 0.9395669697411569 -0.09087409416106962 0.981032879496042 0.8929931704371227 0.23285727239522236 -1.060171249301763 0.4646864610871523 -0.05288443921482411 0.3210598024942698 1.3645163211410871 -0.017595041224386487 -1.7009625664914765 0.4642266636700175 -0.25037139239909567 0.45579736628079937 0.457832438233436 0.025900664218731495 0.2982360157728531 -0.005107021583093396 -1.2496604431197156 -0.12355244942789922 0.4180208471945688 0.25636910909230226 0.6856425175874804 -0.08202113360681174 0.32824602991005347 -0.7974404771120335 0.40005538048168265 -0.3413696563669475 0.1991496628123851 0.7754342703399358 0.5007603244054474 -1.305375199024345 0.03693064803035062 0.07103051966876162 0.11159473303453815 -0.5795376009213946 0.5284675180311724 0.20235337810901932 0.19108657748090685 1.2807455408443773 
0.17255432759514466 0.24068864329216844 -0.598440468560888 -0.05541172912013159 -0.25476556871362344 0.3502631441079661 1.4949939527627967 0.3380118809551501 0.4950082601356327 0.1382209372921387 0.017304439733947796 0.24850585629396604 0.4490033172851059 0.03532003432514519 -0.8206221982006499 0.20325890909068833 0.48875946677259896 0.03398003139827099 0.05757807353780908 0.6228351757130343 -0.027968703514739568 -0.020928808000133414 0.23371501693373908 0.024526848286036906 0.8552857135767772 -0.28851259481508396 1.1047903712935065 -0.3162690327247979 -0.049774002137764284 -0.10758510933362686 -0.2536584553736666 -0.36746891785504365 -0.16853708090854835 0.6340591674359773 0.9876165834437299 -0.8118586721425514 0.3274919269651144 -0.35830478369256635 0.162477669509705 0.29859693546501564 0.473425366594839 0.43225655111117867 -0.16315460332045373 0.8690518466800932 0.281466893463859 0.3362809143792287 0.6816593705399852 0.8892703390326366 -0.8060950950353459 -0.08711798867761411 -0.44025492067131167 0.12137682055865229 0.6234405903956011 0.6115175840808782 0.32564103135129674 0.3266535237940723 -0.4430446204116686 -0.5003232303769433 -0.2006459197517675 0.011153547774361838 -0.19863851354023931 -0.8577901526547118 -0.1318246942588457 
-0.16603137210536534 0.5158765606100131 -0.05489798932791912 -0.9193037473970848 -0.36516155024324326 0.4217894532010381 0.8180768668120143 -0.10892027635300783 0.3248882287960636 0.718781208073773 -0.23883243196228476 0.9223655853186532 -0.08895684743866639 -0.15767427108485066 0.6469760567637084 0.5164067108826098 0.44852715435327506 -0.0035050866434904737 0.19897942810018565 -0.006389772637985014 -0.5295803766287973 0.11053443542400243 0.45316872627768434 0.6082585363204889 0.6058958333258931 0.13699296511025616 0.46026665690722224 0.14593659864154884 0.4111072267900193 0.5349416545290827 -0.24703156305001905 -0.192129100889587 -0.6795533964424295 -0.4203284927547306 -0.12293559182688929 -0.15953685549577068 -0.4590167338779578 0.7193583704840489 0.5909675019783779 -0.03697280134451375 0.1591409063974858 -0.44046359046270567 0.6750816587908961 0.022715266400603285 0.20623139237994825 0.1978227236270932 0.6606128373949679 -0.03715493903807965 -0.06175441991425301 0.05418755730867586 0.18683684487810404 0.12931724711864223 0.12534223064998584 0.04616542732173301 0.1265031661048195 0.15953773278029204 0.21776437433688856 -0.05624516437993554 0.580968009534512 0.19923743577849984 -0.14254768934160755 -0.49464475609638303 0.33981336075746305 
-1.3499192945628238 -2.0127412853731825 -3.239767297215158 -2.7763632820423423 -2.2037716941550936 -1.6578614506193223 -0.5478779214876079
randomWeights-quarterLR-quarterTheta.txt,1,4,0.25,0.00001,0.25,
