63 7 21
-0.9651495902370264 -0.49181078951334045 -0.3787060321088287 0.30628186886771425 -0.5775589551884908 -1.71507896179543 -0.1547681390686685 0.23249021917122503 -0.5588694785718487 -0.08872039521129294 1.5240932099667808 -0.31715865790143016 -0.5331353709411312 -0.2776932153843825 -0.3249974980299436 0.22112987584129928 0.3099019797788737 0.5184955711323616 0.4982639264311761 -0.04991373773100116 -0.10591263624910197 -0.4837429756555308 -0.4408473988213112 0.6727855100966269 0.5985174471919251 1.0747095790873757 -0.1311919104786453 0.16144810843960822 -0.20028445712370258 -0.7208566900182345 0.5043975318393922 0.07931824646904051 -0.13565385713526013 -0.2875110052124811 -0.23874569322374606 -0.38209465326339864 0.5856635037855997 0.27834736728119214 0.713487837943451 1.2097271820839934 0.8313030236005688 -0.7473887391425186 -0.02540096559893501 -0.7442060292134939 0.4756882234671109 -0.16456028231417108 0.3959247017779888 0.16742423241363025 0.027239923569557845 -0.1486803665783909 -0.581726616228168 0.6635856722866786 0.22873858660121205 -0.5978230546367149 0.30090469953507604 0.18780441379883261 -0.6913953504486257 0.7169762443008579 -1.0079578742603827 -0.4872107180136648 -0.5084741323463141 0.6609741775529767 0.9763997734623177 
0.8387745385297876 0.8687680979390745 0.03774117329325044 -0.06186790634636863 0.4817218239824135 1.247508918620524 -0.4917213789797995 0.016848551788095745 -0.1635296078115437 0.1601226445051237 0.24175951394059303 0.1521772402947632 -0.056809750685889226 1.443112396840692 -0.2566241159492947 0.45161059856590935 0.16065743673935973 -0.46051096209913045 0.6171722076434639 0.32953322111054917 1.0646586453357676 -0.5653951898269902 0.25041539057652795 0.04096018894954645 0.548339215182542 -0.2288585108464689 0.4444303844132511 1.0458122625465274 -0.6967639827803451 0.9892306822055573 0.5226935267616124 0.26503787894692177 0.5716507549548069 1.5886606674602262 0.2995147009401675 -0.19350694687151626 -0.19581692915304783 0.1423505729700263 0.17642925242265783 0.036342270240411256 -0.36934253804158834 1.0037496562207742 0.04845833192420368 -0.049155114383266585 -0.1416587875703702 0.7455453185506373 0.6486868003694014 0.16374309374518026 1.5482657039477887 0.7430407218003752 -0.06285408177216767 0.46606891753442226 0.08862636752531916 0.4727891708498896 -0.8512226431034985 0.8380397546165341 0.08365154171592615 0.5355488435646897 -0.3447053705250921 0.4968128757980177 -0.19300594260229098 0.13234810829127708 -0.6329539159202127 
-0.8193863916886678 -0.02657134219028978 0.2535236812594246 -0.1647842415791383 0.4832819359817153 -0.3679407209599882 1.4449504757258977 -0.654414725591509 1.2672568852998676 0.16869080138185122 0.29241821871941887 -0.32336159546746257 -0.23266406516668214 0.9456483020073045 1.2103367131018763 -0.15513149862867237 0.4234128622123029 -0.5714660276654783 0.10249440582858127 -0.07376356646914017 -0.4941735497086879 0.927740215855891 0.18181981112807322 -0.09244884278688814 0.23220316346801118 0.17194898398924974 -0.4660285541036553 -0.6584682848181148 0.6951606680768041 -0.6747793998933229 -0.653825890597791 0.3824853927584688 -0.8678477444244704 -0.6897490267145691 0.0752570671552133 0.7961385362086216 -0.6881027267068183 -0.16739684224690898 -0.2873597212824389 0.33500768364054223 -0.4137442696954745 -0.6858037739487133 1.219052519301063 -0.5501990693423598 0.9620700359331624 -0.46094037961865686 0.6480550472658436 -0.332309799906647 -0.11558939635564747 -0.8096604359867352 0.45498360741459687 0.6098972278255618 0.29082609517255686 -0.3852312654102412 -0.0032900710535537225 0.5438875883674229 -1.6043866858695557 -0.9107111916694678 0.2676637867779462 0.0695681136712627 0.09378558901953937 -0.4157596826347445 0.4888452250278307 
0.5863325383565656 0.26851246563747044 0.5190955842442777 -0.29237546483274146 -0.4284712419271285 -1.4657294195834156 -0.5583144854724771 0.32625681194676937 0.12146200806527185 0.13235678630237424 0.09431667514820341 0.6353915572515928 1.1686165813620022 -0.39581498340378773 0.2569229865128888 0.6172323222883596 0.36426064780026723 0.07192867616138832 0.6891969335689178 0.17564464339472208 0.4385515126067424 0.6060253836865895 0.7185545689188095 0.2504914959239708 0.5916854484810158 0.3275004698748537 -0.38070747583646336 0.45879432788169305 -0.12391570708694322 -0.3776635993201505 -0.9050205023429146 -1.1447197819131578 -0.25847623741605663 -0.4039069751866434 1.5286632416238555 0.4214757433735212 0.15827331138511824 -0.07079086858906358 0.04926339237239663 0.6903612138083267 -0.4922687515961308 1.106893195774714 -0.12244014112200452 -0.5073008269862551 0.7357025567253953 0.5922368271353993 -0.13852504637157326 -0.3284962774292677 1.1003814859783319 0.38716212708744857 0.087886937581514 -0.24728212542277517 0.21526453444536986 0.08303955471134206 0.46700169805626335 -0.016981465242329685 0.48663376781993184 -0.058709585048592805 -0.27465201132067874 -0.6502305125118047 -0.5240855166687024 -0.7359859549215653 -0.6852488929809961 
0.6791251391934193 0.8156565989228141 -0.15282100462347836 0.7098471286436063 0.7088018113021943 -0.6610351720768416 1.29914307633346 0.46589474861272384 -0.11180696537954604 0.77194496833919 -0.10562346190099048 0.3246566592321163 -0.1768145059136086 0.1172729307609951 0.2698001990650778 0.48216212884054166 1.1043347567121242 -0.45842067114405427 0.2573267796510995 0.6529161167260641 -0.5904608145095089 0.18925855850202333 0.3728420595096148 0.39250181933641193 1.4273099130441498 0.38392852862556115 0.3937416023050845 -0.5798463175219271 0.7012526262248708 0.8603936517510213 0.22768983940968857 1.0494855555853655 0.7082923924509843 -1.079059692665226 1.1278081624805816 -0.1478393962172907 0.2263355396438257 -0.05797898441998217 0.19328724315638557 0.47714069351800337 -0.6785223835258694 -1.029140471598987 0.0094579386817214 -0.3727451030575364 0.5905300127686255 1.2462359244749766 -0.27235557699634283 0.05517814804562593 -0.368448166394601 0.8536873649940753 -0.6373381263738307 1.0825125556722819 0.5832381693497711 0.3825866046219091 -0.90538931992231 0.5685157776775647 -0.026570606773898553 -0.10896289469648512 -0.5983425894374492 0.45912211373365697 0.5476706341478245 0.20424976000442252 1.9217826147583992 
-0.03933570250367058 0.3230434829938681 -0.7059858784321816 -0.5279808107250396 0.45662275165128585 0.25133756582974 1.1134536288751025 -0.2977442740682401 -0.5610575625181121 0.8649813398292122 0.04944377997519467 0.4889568821207648 0.6352843787858642 -0.46100784580583154 -0.8774887478721578 0.18149936507593167 0.4010605510027143 -0.8737499131750691 0.11326141826203773 1.104168509925807 -0.4275105227738687 -0.46207605155017384 0.08518842614442024 -0.9676596035400391 0.1797982116328043 -0.3856200577284661 1.0434036035278744 -0.10822096127591851 -0.23818774381351826 -0.8049497488367849 -0.6774248037671351 0.3048585128162833 -0.764910733684915 1.0467167333633725 0.1499097938891112 -0.8758789991152828 -0.4860846165027688 -0.15811013156725606 0.21279663876558996 -0.10856591147061767 0.851898725547452 0.19244085979748493 -0.024226373681139002 0.7401116508858997 0.1815570381945193 -0.16162929555298877 0.9377638393334197 0.6177143708773378 -0.9347884391436838 0.46757709431670813 -0.0019300081921884704 0.348847472293458 0.7386630153338425 -0.20029409211472415 0.10840357824238023 0.4801251271344622 -1.3714605790355452 -0.49434857794068565 0.4282641150752249 0.5535719295386082 0.15486982924143844 -0.7460047418272344 0.2722735459420159 
0.3423518778317053 0.4266510050934439 -0.00939076768652658 -2.1188266547087244 -0.9930546239093644 0.5782079021834747 -0.1925311432831628 1.185071519579008 -0.44116200209153855 0.5269436304607865 -0.44246132558673335 1.1023685809566495 0.7684932584795802 -0.9397974144892847 0.7067264522616619 -0.23328317590690717 0.6794050062427015 0.6128129292734551 1.0209590162082023 0.727729080716428 -0.2806529725763476 -0.06555811622115315 0.25563342424277646 0.5260530639807193 0.46131971212063616 0.20026558362747582 -0.22164980395665823 -0.5352945739710172 0.41606064560465816 0.739056376950772 0.10884557179419818 -0.7838999828279012 -0.5501005286677114 -0.6962333624865156 0.7125791991512189 -0.07919321035345173 -0.3350985354569882 0.34191530935752545 0.7682226328328954 0.2319294552126685 -0.6473412811794559 0.036559389258371766 0.04433312718359528 -0.16190879490433263 -0.06124839024693629 -0.01664029924371313 0.46678602085450993 -0.6416304388659748 0.17181707939517799 0.7452260487336954 -0.5639215961554364 0.6441232865481566 0.679324774352944 1.183254503297208 0.46240576686376045 -1.0544950529247137 0.41157588748252505 -0.5988548623242991 0.22645194642389443 -0.8954444540031773 -1.5738962883079513 -0.1399843867568077 1.245122609859776 
-0.734992173338072 -1.1637323704392708 -1.700778564670895 -1.475764501189944 -2.5665051409462456 -2.2177465838483448 -1.0599160217317127
randomWeights-quarterLR-oneTheta.txt,1,4,0.25,0.00001,1.0,
