63 7 21
-2.2157735711657454 -2.317107475931294 -1.890251624363736 -0.1211941872941158 -1.7446140120232596 -3.57849625018209 -2.1930759242435527 1.8054360541867474 -4.446193632665095 1.6444837081836776 3.7029907246164098 0.14908051062751726 2.4449834450234746 -2.4960239153128447 -0.176895566214619 -1.7999116894768732 1.8448014052766042 1.7709916257605927 2.041443985584765 1.5717865091619052 -0.4325991434634311 0.0913702978666382 -2.092124341383983 2.450083613603158 2.206112145437893 3.860564522034279 1.6329673825418602 -0.15674280924909167 -0.4950937592245317 -1.6721300387364528 -0.4497702849656128 -0.35774120817636046 1.7584798206270482 0.010456240632571667 2.1957517165276204 0.03722089444698662 0.49100479783422446 3.748527330062974 1.9979372281435621 3.8524525777441117 3.9067371180605823 -0.23483277326231455 0.453837340067607 -0.3399385223677037 2.38009323408317 1.90790352661294 -0.4163864688146228 4.111441543635184 -0.4415326096955319 1.8437479822073306 -1.5990452949136915 1.7862182514115568 2.4879757922667642 2.355449430402863 2.1148106492291534 -2.0001571076977367 -0.4595207914540217 0.043921463227837965 -2.2134058905641476 -1.5661188409412006 -0.18035159900424258 -2.3197165091011076 2.207041197537917 
2.1545016828697174 2.1706804528608505 -2.171789280429157 -2.4088623333301635 -0.24924277301333042 5.59802296684689 -2.3113591672009854 2.2399939920884764 0.06350761706443686 2.0870164512099043 0.4034708314160236 1.5527275706766863 -3.5208623957975296 6.30232427981526 0.45637530308485097 2.1149756389243315 1.9500701088987316 0.2344360038097486 0.2264462143672672 2.4775619157043116 3.812840018128229 -0.44621051522268873 2.4106983845533545 2.3209103636109787 3.638159074796343 2.220920958810666 5.761662194998791 0.3271624434927456 0.11104891816994966 4.228894493351277 4.349566832710294 6.085956262418293 1.6197841964682533 6.323988834330963 -0.12009381614393577 -0.40482249440535645 0.444300969355123 0.30159547880298176 -0.05028111788780043 0.43459312558057217 0.17789007552830638 4.006509481076085 -0.49029739261888006 0.4881311660451302 2.2904089559074836 2.4802698807402543 2.2143222807709875 0.16967125930868066 3.546910145803597 1.79293436315856 -2.2116394316298846 2.467561165943671 2.3324972996739763 1.9726481182290754 -5.984101822927795 5.764677977519184 -0.19761437144472893 0.10359473907476802 -1.5334993634058884 0.31370240908960767 -1.8244442438462865 4.1013921982925865 -2.3865727745524037 
-4.578944463571414 -3.1052751800964087 0.569966757706799 -0.8791276664849228 1.047917482074927 -3.257022410706719 5.272543982744761 -2.9620205207811368 6.702824182711238 3.201866447453252 0.5730297044218704 0.8847137179204512 2.804067538080797 2.8125345834123685 3.3677260136886558 1.242996809072654 3.49601240288448 -1.0656888913489255 2.5867883635575755 0.5914521744751082 0.7951883557462873 3.2673053314621523 0.59538379972946 -1.420058629521428 2.9172986544733837 0.5182361641786115 1.3166749476550335 -3.030676398682815 3.4238480760246723 -2.648626994786601 -2.8232422122848293 -0.921978427473233 -2.992243566851227 -2.763809168024619 0.7929704024160955 3.3123286301482873 -0.550761584994234 -0.9456811244072383 1.1795289334537618 1.3739933558018702 -1.48360605988081 -2.6394113230462097 3.1282364488446213 -2.963530233060095 3.3593679864362676 1.0064641866153385 3.3370486668213495 -1.0396775589739495 1.252602580326453 -2.5711372787568068 2.805570389775929 2.878627821563244 3.3766174314104376 1.2833525761545181 0.9940949538561519 0.6248139591747175 -7.301079557450011 -4.742060677191365 -0.7484113348071326 0.8982336298330384 -1.0869373800423547 -3.1578705012688895 1.0580603005383118 
2.8255167374364847 4.545687182631389 -1.301953946576928 -1.3081083883770157 0.5419722525832604 -5.437525099387199 3.084478261936656 3.325499843804171 -0.7021959625359626 3.1569977549566985 0.5859960183281143 1.4811110567846448 6.801885880620259 -2.8852546732655457 -1.1242054676095505 2.504334171696528 2.518583825470764 -0.5578468548756326 3.016399077227363 2.983301630373414 1.39967888951487 -0.8720182232144729 3.2222889345380765 -2.671358961975571 1.1961322479111125 -0.8148620144455618 1.0010849653387504 7.226189383794155 -1.3709795435469545 -0.6195604578708203 -3.3359455351829213 -0.68034184390555 -2.620368010748228 -0.9704487820586039 8.517975166005456 -1.284190765621123 1.070630855087721 -1.0147037559581977 1.4029398399073578 1.4213028794835028 1.1533565452722396 5.479774488296002 -1.3755280375296866 0.6182306246921643 2.890744305038174 0.7941943421904423 2.7433616048844263 0.7644478512357704 1.4310132065627035 2.8250528966236588 -2.867079754809172 2.8651719888005913 3.304183731470857 1.49127441579324 4.690892061289995 -3.09608625371205 0.5416510374348817 2.5841447706255103 -1.3979518664009478 1.3436609975721572 -0.9815466283372984 -6.899644714785316 0.5875294409652325 
-0.4514600396271917 2.3181963467722255 -2.351706824709557 1.579896232593721 3.725256003638197 -0.12208243298656862 9.912556397589475 2.173059387218951 0.49242735789906744 3.9094980504883923 1.8309197717640084 -0.422533238416432 -0.04415952698908443 -0.18545350077349454 -0.3721068550878348 1.7362233158648728 4.000578324335214 -2.3462219125658823 3.614834452136835 3.7200860322968854 -6.1334138335390715 0.217490607555888 1.6968513657748616 -2.1918167673784654 5.9530058377708475 1.7636901940839742 2.165005262353495 -4.101003971189936 -0.22876942263464528 2.0969923100116183 1.6551954965825977 8.124435182264005 4.147297215688079 -1.8688488223665218 -0.023608771788247607 0.2751982189403068 0.4861460234176158 0.32904671030246235 2.363417146242958 1.662193229859343 2.153442848884373 -5.553814988523138 -0.40671157950461545 0.3366671994335584 3.8050721758427115 1.817244938298595 0.3191292467815843 2.170778380132248 -6.199926132286855 2.0199295111671014 -2.0780012928045863 4.160703828447561 3.6697102439772453 2.126358176098623 -3.8415139104667464 0.4559746594425498 -2.0164855254852156 -0.09053832090087921 -2.1092723012411785 4.041583386884598 1.8525851395453827 -1.6896813986344514 10.225535479038777 
-2.2589443068849744 -1.8079015493677026 -5.539382393732417 -2.106344285437073 0.21858224671044546 1.9072536770366288 0.3384092554044278 0.3768094012155059 -2.2201435891756365 2.4868284754077665 0.24182200277484933 2.090053123551777 1.8815644740328032 0.3242297732025734 -1.8687415752952927 0.4742030117107561 1.9028781881439638 0.07053167402723448 0.21852799163426084 5.647162401359571 -0.1775237334321651 -1.9156383975848916 -0.3991607400561128 0.18070130042683108 0.02326003198672577 0.18664270303769848 6.336832600685877 -0.08498255609228078 -2.2146593210822836 -0.34105632971482636 -2.263343574107388 2.1995375875059935 -0.29146071275602337 6.393914226473173 -0.04062068408336317 -1.8162317278138973 -2.482444341520424 -0.14274021695346528 -1.6364305320367523 0.29860793915575146 4.446124954265178 0.05293698371459099 -1.5593387618172985 1.8663831289847903 1.6708961239915228 1.9967271641243622 -0.42423088667894593 3.8569732118969 0.07142983295026539 0.298071933520788 0.32689678406218325 2.167739819380028 1.9296275192325096 2.326031288438786 0.3910292401071116 0.4465785225220391 -3.9499325342541094 -3.907548290139097 -2.0656153844087197 2.4002621494534497 0.18213779205598124 -3.576092348793153 -2.495858925271205 
3.555520362201567 2.2137069003690932 0.31024374230407226 -3.64374157586533 -2.1975065437384727 1.546226691731567 2.268435674259399 2.239798125548717 3.5336855891356893 2.2680737497525545 -2.1705549443541066 6.39711749356775 0.3583262469002446 0.1440384093165259 2.2843013209579377 3.733365272364344 0.1957041122098997 4.080539462075418 -0.06795932123520432 0.1695191822318316 0.3114567194220097 2.02523242240808 4.223601342058331 2.310538010104885 1.6304800996216224 -1.9413186310266286 -0.2455026306007173 0.10881505960301974 1.5276607593679956 1.8824701943681372 -0.23110048916976567 0.42701598854022116 -1.5217036721559123 -3.622143795223171 1.659040083195337 2.1397359321023726 -0.3380144607188571 0.16004543774993962 -0.20360152499451445 -1.5699875335859228 -4.143067928512977 0.0853955991352846 -0.08508787856456013 2.234582052369992 1.736020867186171 4.482328936192026 4.18149806309863 -1.6291302921828295 -2.0183102859351267 0.4714643633967994 0.03545791835854373 1.739052775787366 2.4735326346752102 4.116454145980116 -0.14412070530489007 -1.8658583498630592 0.170736305283543 -1.695762490028081 -2.475065011088759 -2.3741286302846953 -3.789135996523182 0.1918997791391912 -0.004979330435908036 
-2.2038326176485024 -1.8428589601395582 -2.5486227156540746 -2.633134524131345 -4.186664298928124 -2.2964912691938055 -2.265653873233986
randomWeights-oneLR-tenTheta.txt,1,5,1.0,0.00001,10.0,
