63 7 21
-2.149231824988954 0.38659998564223486 1.5598296630977915 0.214430116696549 -2.310716837775524 -4.134864993507875 0.22476705633247296 0.04724977890421922 -0.18559871116543158 2.3315045356293473 3.938378532067456 0.3517571720176327 -0.3807084207177933 0.4113668051040431 -0.27399804754686574 -0.2791729036749344 2.1783448876471763 1.7080579906540208 1.8806300220543175 0.4128882377256011 -0.3831003931331507 0.30917338756579027 -0.3109638550256606 1.6645389912330284 1.9194831208298058 3.9373906639793277 0.0635940772702086 -0.322306020765025 0.36312277011387994 -2.088174028988645 2.2433965562305165 0.28788411009302717 2.224194579615067 -1.9128107675714765 2.330816184646225 0.086933542975971 2.4004415336205667 1.7202323002284818 4.063442007176734 3.821089585769612 2.1142078522773327 -0.22353998483724702 -0.11363676482774543 0.21478195866034078 1.9185992728215115 -0.4651995082662368 2.0860613152593115 1.9805402980801161 -0.18480632328725743 0.47390788567621067 0.47471043262937496 1.667200050378222 2.410090352768691 0.3309971274833656 1.8724753820527638 0.17137826354750407 -0.31549967233529763 1.9125871827837835 0.42543516892098965 -1.8086973094841534 0.13674427543136636 -0.29374487605854727 3.618049497205396 
1.7644382686281155 1.5934808708922272 -2.3083756001185414 -1.9691180505350194 -0.40118763300397964 3.9958881278488985 -1.9359776577191097 2.218610178642896 0.2775202810048345 1.6006641439665454 0.26090153762563784 2.313241191180784 -1.5520369070584363 6.4056674338009385 -0.18494256324954406 1.6259806434138437 1.630063629534792 0.20070876073552757 1.5679793709663485 1.5024965110967705 3.5355924053147376 -0.24128219010210517 1.816523844999017 2.3945833526148155 3.7405600369910363 1.9489842980975345 3.7876449629079585 2.2045017825203868 0.037855068419936355 1.70438838303982 1.9954120430622027 3.924241085964135 1.7592201389218527 6.275512841238484 0.13708298458903556 -0.1414467017640315 -0.15117626757319425 0.4867548434693232 0.3187912945710305 0.26845954831826635 0.49509849690199226 3.77303276843191 -0.4335562300416189 0.10103057891239109 1.6831814403395415 1.6204092467932976 1.7737147400948559 -0.41840516363474034 4.117205297183802 1.6599286631230954 -1.5334379784338168 1.836129521306685 1.5798541962702033 2.0711937997476766 -3.9775214431899397 6.384441163506064 -0.05398867269965102 0.14068288460729783 -1.727267034155342 0.2988439139685575 -2.2520102799557886 1.7895345577586532 -2.262858644567854 
-3.598247947962479 -2.3634944159651026 2.0934515380826264 -0.35464815638562586 -0.053311393701566345 -2.305968408072154 1.8672100446788402 -1.7716454758010145 4.425937418580103 2.108799017428454 1.743021477424787 -0.1440367789587862 -0.1601058453389581 2.4529616354512296 2.3443985015652293 -0.05549815080529097 1.942473383612164 -0.05188728852349178 1.8069401728704535 -0.014215698450950276 0.0178473052403878 1.6613497596487292 -0.02163478925669793 -0.17686062334144426 2.1748015910110694 2.1512455796582692 -0.381034358586388 -1.9517438932555047 1.626512521328988 -3.7387339774409183 -0.45266387076946124 -0.44327888438517316 -0.1145367847327814 -2.2408488653179046 0.278771918883324 2.066722376825007 -0.2036187601856243 0.3030033646053729 2.337519170707916 2.453244674820014 -0.14550644426901038 -2.2216976507226827 2.0890989838560134 -1.9208163601579713 2.3120590962813656 0.3947934020910049 1.6352162900604874 -0.08484294146888827 0.16305334466493449 -1.9418278302387084 2.0413037559689817 2.131393585835499 2.2140429268992943 0.43871575973217336 -0.07446031099921857 2.0179305514267556 -3.9012969065676013 -2.1525140263490954 0.22821807293984708 -0.4565460774437158 0.2740940297502652 -0.4995422803535474 1.8016382054045583 
2.7487268793848454 3.001902206708415 -0.6867799986432546 -1.0149358981653682 0.5356139335611241 -5.0894199559295785 0.8383402954404628 2.513476525020316 0.597911547601782 3.065777691856533 1.4344249145352082 3.1445819219478506 5.360428731812098 -3.05505449664323 0.9341195891667256 2.9780161319247584 2.6971878269031113 0.7006734355706867 3.1729024466373907 1.0270516558156366 2.6733884909551393 0.6819663017999329 2.8752897192490927 -0.8557038858507604 -0.7804604794476784 -0.8167424938602315 -0.5361746385311976 7.16635546450709 1.346187738560857 0.8843264336518044 -2.8736658572971816 -0.6690410686605048 -0.5304131238104293 -1.0547388255182462 6.579457123151038 1.2866448129430648 0.9118134283683523 1.0028355120538612 -0.8997224117423288 0.5629574937183972 -1.3367492352003532 5.378144392716586 0.5628838271060621 -0.8017923303703518 3.0510266488271665 2.6500701852036337 3.413005363338855 -0.6678007391478995 3.043903452878901 3.375127181162337 -3.2586028481093394 2.962928333966266 2.542284241137673 3.1414593770080526 2.875436356050665 -3.2608894712451275 1.1514125156497523 1.3332427679890273 -2.8015656595060854 -1.3855045878060999 -3.3834934885772885 -5.048530406798522 -0.7725433409402238 
3.3104841150711035 2.588069253361802 -0.6670182550235656 2.9685149270879507 4.908097553214105 -0.8174533431591937 4.867519404895836 2.9573200142270615 -1.3452881894863324 2.503795396438683 0.8853477269973635 1.3076841793187617 -0.5563758064765092 3.3944699427921163 -0.9181824466982753 2.5721551590272504 1.252737133299124 0.6912773343074923 1.0582116939770665 2.97718314441868 -2.6404402416938555 -0.6082244429223733 2.5269355703284617 1.4438052177745382 7.15292827923661 3.076742300613751 0.611855100694398 -0.8245608649626313 -0.7095007706192205 0.8169045381480089 0.969886344926338 6.88190816419238 5.412983232311868 -3.206204539939848 1.062480905493835 -0.5245784503228494 0.6192518023494729 0.646732473794772 0.5394397521138274 1.122085613589976 1.4308631148689905 -2.878613812700274 -2.637472383624834 2.861622415238358 3.0302169034906496 2.940136633119496 -3.0073512311083768 2.6183251091422584 -4.856537199853584 0.9403902714817574 -1.3081157254200075 3.3178792837961466 3.057450517084882 3.434257029626372 -3.249520172345191 0.9975327851013795 0.9094241727251897 1.4314638459813396 -0.7610875263051683 5.251196734831135 4.568827367056366 -3.1628925372992303 6.706453171709488 
0.1424990951028562 -0.013174318966179044 -1.899818171059698 -1.7132774409524185 0.37770582674159137 1.9141931249036355 4.062199905097472 1.6708289062365635 -1.988132452092584 1.5586239740811645 -0.3221749084762717 2.219035120870623 2.4235012422290776 -0.2832094235247151 -0.30615829749898604 -0.10219297176615916 1.7758179200083137 -0.08345625343976515 2.203419047053163 4.154897789491782 -1.7874255090723594 -0.4504533329721834 -0.1969003744379707 0.4803309444531094 1.5651951768092045 -0.46268871258614275 4.267297683462809 0.13263709201644236 0.460841423554162 -0.47494747380532853 -2.1429620109639402 0.11509128671122903 -2.316976601308263 2.098751834011038 2.4822035364798363 -0.24669937985645807 -1.870489996252267 1.8030490020508876 2.070349968984572 1.7733417254726298 1.7367088723805104 -0.19894333001312736 -0.3398161007517385 -0.39124914035655545 0.29535102446915573 -0.1380804426861295 -0.065909200431705 1.775019566577719 -1.8307699441649012 1.9879160318542088 -1.8683622182118693 1.5418514732531312 1.5469087162037665 2.4001270989957755 -0.45523492071814986 -0.1937133398241344 0.005720487680577202 -2.209826167465766 0.08541989712374853 0.023901960385522614 -0.15194232998105095 -2.28474910692165 1.737674204555717 
1.881851192750451 -0.2353391902751043 -1.9410916579298423 -3.815522783178513 -1.939687855374855 1.6582797195063683 0.2784304739175356 -0.22620281580952062 1.6704184088842657 -0.24913800450438672 -2.043058488095871 4.278828059342378 -0.4347059610693046 -0.4891820966417503 -0.3834562162187569 2.2323661358024434 0.27254340262062415 2.418074943663833 0.22853120748151068 -0.37200090308937606 -0.3212342144961644 0.38285981869644226 1.9549874516054597 2.466700142761745 0.38989017657616154 -1.7742850235796594 0.08025774969867738 0.3168200208067957 -0.20236544180911054 1.9787898213311284 -2.3603507709493403 -2.0121503847543925 -3.6556925289272573 -0.23057637401144515 -0.14474657343941777 0.18492688159519144 0.4713338332371435 -0.17073668124145014 0.12257382480969703 -1.9410863501026479 -1.7386984740948894 -0.26436351936934166 -0.0433193981567932 -0.10403082054280155 -0.16101142950042047 2.3366255535278926 2.002903171104582 -2.1991010294691686 0.18374538641306737 -0.06273309864156795 -0.05538913723301775 0.1201593581162188 0.12377046387987867 2.2315241137718322 -0.10057923902534438 -0.4767509879955998 -0.06776843007230804 -1.846838397405195 -2.314789052926895 -1.8846790762258092 -3.8741506139941553 0.2883717397041061 -1.8413938512119714 
-2.233377987717914 -2.3625710635708557 -1.941604568715157 -3.4015343762309787 -2.574722551009753 -1.9135873027223946 0.29064698670668254
randomWeights-oneLR-quarterTheta.txt,1,6,1.0,0.00001,0.25,
