63 7 21
-1.155340917023464 -0.8130290288647379 -0.1476796893046819 1.004794925390689 -0.8664155549262038 -2.9926240362831473 0.8251743202399282 -0.4253498088077673 -0.5346723559522641 0.9432148480136859 2.100455789403056 -0.2761414973603379 -0.9909241877993035 -0.7046456836004165 -0.7398308760451816 -0.7106399729575532 1.1651960895655018 0.5120710178182839 1.2707374683862014 -0.019692209620576495 -0.5878186701399994 -0.5129117395866202 -0.5613094557882161 1.4741664249863475 0.09716236396503852 2.461861935159724 -0.3100606038651086 -0.12926288587496437 -0.8998073877890859 -0.46809831423898507 0.6033316909949451 -0.6948350083796608 0.18630086534448453 -0.9452345067857624 0.40359706373187354 -0.6655387464754634 1.7743463750562398 0.8364670426821921 1.4244546934744324 1.3067989551261396 1.7979999141003198 -0.16661307382809742 0.3895701559037754 -0.7011816656825799 1.3117131865849898 0.24838034074523074 1.227212029179684 0.3634034931920822 0.5033283512603262 0.3226257070070022 -0.9661262600209835 0.7688695295286281 0.8150183022932094 -0.1711406207662669 0.232788879084607 0.6302249967124293 -0.05446270065868186 1.256994461065266 -1.0648163901387737 -1.1658480307992922 -1.3906989565440353 0.949722030020006 1.0052729353812737 
0.5616035693189847 1.4935455785835803 -1.1455779130023922 -0.6848587085056046 0.0643186011034591 1.999800473970313 -0.9544419522593803 1.063752218139415 -0.3372794248262896 0.5205620772504028 0.3758308522678825 0.522079750172537 -1.128399073960093 2.7359476532801863 0.22368759094443158 0.8904571584216359 1.1276435450735183 0.2221687630009186 0.5959367307936456 1.348826259143548 2.1550625794075464 0.06379233997377332 1.4910442302597355 1.4282418654600701 1.7127948087016152 1.3090202774080684 1.906816787526926 0.6743849223786695 -0.45592198193009204 0.7833989712067373 1.0637920195939388 2.1697646962665584 0.7330355400077528 2.5752217594885276 -0.3099310240072486 -0.20523220342012582 0.08792655439516706 -0.4150114750531799 0.018977113921064714 0.20243818873098007 -0.38298949769931756 1.891638941252764 0.48789473529741245 0.35784833805513083 0.6405131890422167 1.3298766239244884 0.9946936792179408 0.15014917286619833 1.5909714373534407 0.5957535016757962 -1.032300617103545 1.0238621379946502 1.0942714296704183 1.4017852531864754 -1.5642792922940194 2.7957038499616544 0.49498607012183615 -0.31177998586995126 -1.2533827876758428 -0.17578957842123788 -1.4078453109435602 0.6636842269905826 -1.4239635666038764 
-2.0145616516038656 -0.50371892063328 1.3923667335965844 0.4412235335092357 0.0966222488792644 -1.1946813064829975 1.599616435712186 -1.3628380093288515 1.6277266580183114 0.7141962861830686 1.166843077248691 -0.11846033067214279 -0.05547399732282776 2.116578865288589 0.670921597198963 0.028556863442696034 0.6330657298424196 -0.019158206972287872 1.328853275389045 0.265755903750721 0.26680441872319727 0.971868494743338 -0.22351761693005168 -0.4187558679624487 1.2432991802361177 1.4046365228586222 0.062400852136770824 -1.292992710527888 1.4018899139711134 -1.439372201436233 -0.43101457766350615 -0.1293807520430179 0.017628304443352172 -1.3040487048806557 0.34692614462944926 0.501130518872889 -0.31826425545767134 -0.3508322847151001 0.6552688508226954 0.6296446601489729 -0.47483634517568385 -1.1828430308954943 1.3359082430741864 -0.8989318469447571 1.2193688944783863 0.4089712966430985 1.0196326416769899 -0.1292543165002099 0.19720571619666905 -0.6895318017483782 1.0602351274927784 0.5981700521997781 0.5768750309765471 -0.40338127769332366 -0.4761299515913828 1.4696813375624953 -1.6568392888947647 -1.2862612272272784 -0.47725196880578125 -0.316952159696569 0.4427217619639897 -0.37950803058147053 0.6754264680163256 
1.0839980484098504 1.2243647850843473 -0.9996334882320737 -0.1913610734645368 0.1973267485158463 -2.220584321254212 -0.3949078601898882 1.8290622211506902 0.7071553809633411 1.521452079737191 0.12020013297107157 1.028136206842695 2.995776438586031 -2.2916098777931477 0.9456346224149272 1.5833084046116426 1.6967977932198928 0.4064040062370875 1.0260534096667304 0.7304397966778555 1.746602101215947 0.8165729551318481 1.0527775763158518 -0.8529413639415819 -0.556662818596664 -0.3279140411896383 -0.29827007336317424 3.2457868961304768 0.11551914375686934 0.25266545686118824 -1.2400681236099498 -0.524130225643608 -0.613881913694716 -0.6392772710441612 3.267542126964396 0.0442162798952378 0.4330361752042501 0.6828600547969867 -0.39191448527020945 0.5620847049588117 -0.9068235786777334 2.320684983473156 0.8164328372713348 -4.7667290732866796E-4 1.134839746025682 1.9165049919742017 1.2422584746640306 -0.013095941222767027 1.5319770205256615 1.722321273789296 -1.8938850862525565 1.941362150432367 1.1138614883510836 1.1646426128912886 1.4159286563032398 -1.2843172304932358 0.5350366803415714 0.9429916434038197 -1.8263648268855193 -0.5318491187053885 -1.887066644061154 -2.5334226711670818 -0.2051646898135533 
1.2143384184687664 0.9814591126148524 -0.31123110439649837 0.7434364541537635 2.0369377101382473 0.5696297448751194 2.5015662307185336 0.8729153223881179 -0.17155627953060737 1.3117953979189443 -0.3873488241521107 -0.25162485191501904 -1.18664183267129 2.2972330023548215 0.09233478599715761 0.9187970929612228 0.356208669023919 -0.16304307081998903 1.4780512821104903 1.2129850872165675 -1.8198623812199193 0.19052761782847882 1.4073532517841523 -0.14083690021273976 2.781010405910056 1.3521876635215224 0.35769638170364937 -0.8011731538891564 -0.4702503859140108 -0.04138879242212079 1.486208414462089 2.8584058758699284 2.8393900079616325 -1.321595218611121 -0.6629491846277036 0.05576868231077592 -0.3116106373477233 0.022599207324468962 0.48964608209420146 0.3133294162295206 -0.2619818548892179 -1.6242766162434683 -0.9420428034575087 1.2254924600788901 1.2591907008547407 1.1886527899457775 -0.6808296582315225 1.0853963932496582 -2.9071101672625783 -0.302723239785473 -0.3504544743438358 1.1143964820918857 0.9083750036767015 1.235130441032561 -1.6241358349087731 0.7574507343477772 0.09465428135092024 0.193488399063097 0.11281672215432481 2.008551583690127 1.723238649210964 -0.05098071667845783 2.649837341571958 
-0.3460135685005713 -0.8730484135563423 -1.0246933772315534 -1.2466332712028265 -0.4791149181080987 1.8968024384790128 1.0817080809945465 0.9827135664308326 -1.9690939497281033 0.6080735181434753 -0.2177631438671187 0.6706202758440032 1.7366077028626241 -0.03508144547692471 -0.11247520649224263 -0.8352057021701973 0.20195092513418045 -0.8883603704586684 0.7405587392355566 2.9355131900659974 -1.7291701654913583 -0.5450298624629186 -0.7114662894727324 -0.748122478510965 0.9691104561473649 -0.21554540205512707 2.5822965386645875 -0.6135993389200158 -0.5764917218643842 -0.7311636534245363 -1.16280073503582 -0.022884215566413513 -1.4355746000012592 1.704216296481679 0.4635963241244405 -0.5101421119806522 -1.2050937575639602 0.46884709158019655 0.2808829013227615 0.8181046692005023 1.2541607448963918 -2.2112187674827588E-4 -0.5341135333933623 0.9337369307187557 -0.21835768181536241 -0.7518257652298871 -0.34541295208212275 1.1593058074103562 -1.8035426867043562 0.4929613360591878 -0.9844435517271048 0.07087020296199753 0.04692156737995545 0.09659647455099152 0.04417012292053213 -0.7398048612184367 -0.44363115945967135 -1.7279423480544889 0.2885598054676858 0.18607745413041998 0.09385491798420198 -1.3032061311291632 0.2114390457116696 
1.132190282849313 0.8572047962880398 -0.08365229944523633 -2.1908679388653853 -1.6792268067508664 0.3363284802107126 -0.47747449476774984 0.6342289602319937 0.9969841846876228 0.8677651171678562 -0.44046066112458504 2.5463431565918757 0.18744213814339183 -0.12953262519296116 -0.12904799767565756 1.498007426837932 0.9092108366008798 1.3518788376773774 0.16573539124684555 0.15340958649544056 0.3710844514941254 -0.47899610049783337 1.5367941934227305 1.9416141703067917 0.49636879278205626 -0.8116564813509446 0.9778807649583379 0.8222022605909287 -0.9588848061911179 1.0462340574150073 -0.8266542611437118 -0.8418638353231513 -1.534448244879255 0.2209761399899769 0.6095829954422982 -0.09586919325039145 0.6314969295678936 1.0672437791686598 1.362691713732044 0.913541131060426 -0.6551715250396568 0.03561454544569109 -0.24620768899481593 0.54275110000449 -0.2603792868175815 0.5856633520732684 0.4315969858268621 -0.11072357232865904 0.5093513589383738 0.5399142393826544 -0.6587500964342476 0.9382696743964153 0.030619031540100816 1.9780456757189873 0.46911587922998943 -0.38815685708005365 1.4961005418940574 -0.2439031293693099 -0.7848894900603185 -1.7833986575730103 -1.7239825543676321 -0.9979760120209111 0.7373291183794555 
-0.9574363132662886 -2.0584282625147723 -1.5183458113431634 -2.690953391158226 -2.265891898460587 -0.9874286403623616 -1.3732074589187198
randomWeights-halfLR-quarterTheta.txt,1,3,0.5,0.00001,0.25,
