63 7 21
-0.5 0.0 0.5 0.0 -0.5 -1.0 0.0 0.0 0.0 0.5 1.0 0.0 0.0 0.0 0.0 0.0 0.5 0.5 0.5 0.0 0.0 0.0 0.0 0.5 0.5 1.0 0.0 0.0 0.0 -0.5 0.5 0.0 0.5 -0.5 0.5 0.0 0.5 0.5 1.0 1.0 0.5 0.0 0.0 0.0 0.5 0.0 0.5 0.5 0.0 0.0 0.0 0.5 0.5 0.0 0.5 0.0 0.0 0.5 0.0 -0.5 0.0 0.0 1.0 
0.5 0.5 -0.5 -0.5 0.0 1.0 -1.0 0.5 0.0 0.5 0.0 0.5 -0.5 1.5 0.0 0.5 0.5 0.0 0.0 0.5 1.5 0.0 0.5 0.5 1.0 0.5 1.5 0.5 0.0 0.5 0.5 1.0 0.0 1.5 0.5 0.0 0.0 0.0 0.0 0.0 0.0 1.5 0.0 0.0 0.5 0.5 0.5 0.0 1.5 0.5 -0.5 0.5 0.5 0.5 -1.0 1.5 0.0 0.0 -0.5 0.0 -0.5 0.5 -1.0 
-1.25 -0.75 0.25 0.25 0.75 -0.25 1.25 -0.75 1.75 0.75 0.25 0.25 0.25 0.75 0.75 0.25 0.75 -0.25 0.75 0.25 0.25 0.75 0.25 -0.25 0.75 0.25 0.25 -0.75 0.75 -0.75 -0.25 0.25 -0.25 -0.25 -0.25 0.75 -0.25 -0.25 0.25 0.25 -0.25 -0.75 0.75 -0.75 0.75 0.25 0.75 -0.25 0.25 -0.75 0.75 0.75 0.75 0.25 -0.25 0.75 -1.75 -1.25 -0.25 0.25 -0.25 -0.25 0.25 
0.75 0.75 -0.25 -0.25 0.25 -1.25 -0.25 0.75 0.25 0.75 0.25 0.75 1.25 -1.25 0.25 0.75 0.75 0.25 0.75 0.25 0.75 0.25 0.75 -0.25 -0.25 -0.25 -0.25 1.75 0.25 0.25 -0.75 -0.25 -0.25 -0.25 1.75 0.25 0.25 0.25 -0.25 0.25 -0.25 1.25 0.25 -0.25 0.75 0.75 0.75 -0.25 0.75 0.75 -0.75 0.75 0.75 0.75 0.75 -0.75 0.25 0.25 -0.75 -0.25 -0.75 -1.25 -0.25 
0.75 0.75 -0.25 0.25 0.75 -0.25 1.25 0.75 0.25 0.75 0.25 0.25 -0.25 0.25 0.25 0.75 0.75 -0.25 0.75 0.25 -0.75 0.25 0.75 0.25 1.75 0.75 0.25 -0.75 0.25 0.75 -0.25 1.25 0.25 -1.25 0.75 0.25 0.25 0.25 0.25 0.25 -0.25 -0.75 0.25 -0.25 0.75 0.75 -0.25 -0.25 -0.75 0.75 -0.75 0.75 0.75 0.75 -1.25 0.25 0.25 0.25 -0.75 0.75 0.25 -0.25 1.75 
0.0 0.0 -1.0 -0.5 0.0 0.5 1.0 0.0 0.0 0.5 0.0 0.5 0.5 0.0 -0.5 0.5 0.5 0.0 0.5 1.0 -0.5 -0.5 0.5 0.0 0.5 0.0 1.0 0.0 -0.5 0.0 -0.5 0.0 -0.5 0.5 0.5 -0.5 0.0 0.0 0.0 0.0 0.5 0.0 -0.5 0.5 0.5 0.5 0.5 0.5 -0.5 0.0 0.0 0.5 0.5 0.5 0.0 0.0 -0.5 -0.5 -0.5 0.0 -0.5 -0.5 0.0 
0.75 0.25 -0.25 -1.75 -0.75 0.75 0.75 0.25 0.75 0.25 -0.75 1.25 0.75 -0.75 0.25 0.75 0.25 0.25 0.25 0.25 -0.25 0.25 0.75 -0.25 0.25 -1.25 0.25 -0.25 0.25 0.75 -0.25 -0.25 -1.75 -0.25 0.25 0.25 -0.25 0.25 0.75 -0.25 -0.75 -0.25 0.25 -0.25 -0.25 0.25 0.75 -0.75 -0.25 0.25 -0.25 0.25 0.25 0.75 0.25 -0.75 0.25 -0.75 -0.25 -0.75 -1.25 -0.25 0.25 
-2.0 -2.0 -3.0 -3.0 -3.0 -2.0 -1.0
zeroWeights-quarterLR-oneTheta.txt,0,4,0.25,0.00001,1.0,
