63 7 21
-1.0 -0.5 -0.5 0.5 -1.0 -2.0 -1.0 0.0 -1.0 0.5 2.0 -0.5 0.0 -0.5 -0.5 -0.5 1.0 0.5 1.0 0.0 0.0 -0.5 -0.5 1.0 0.5 2.0 0.0 0.0 -0.5 -0.5 0.5 0.0 1.0 0.0 0.5 -0.5 1.0 1.0 1.0 1.5 1.5 0.0 0.0 0.0 1.0 0.5 0.5 1.0 0.5 0.5 -0.5 0.5 0.5 0.0 0.5 0.0 0.0 1.0 -1.0 -1.0 -0.5 0.0 1.0 
0.25 0.75 -0.25 -0.25 0.25 2.25 -1.75 0.75 -0.25 0.75 0.25 0.25 -1.75 2.75 0.25 0.25 0.75 -0.25 -0.75 0.75 2.75 0.25 0.25 0.75 1.25 1.25 3.25 0.25 0.25 0.75 1.75 2.25 0.75 2.75 0.75 0.25 -0.25 -0.25 -0.25 0.25 0.25 2.75 0.25 -0.25 0.75 0.25 0.75 0.25 2.75 0.75 -0.75 0.75 0.75 0.25 -2.25 2.75 -0.25 0.25 -0.25 0.25 -0.25 1.75 -1.75 
-2.25 -1.25 1.25 0.25 0.25 -1.25 1.25 -1.25 3.25 1.25 0.75 0.25 0.25 1.75 1.75 0.25 1.25 -0.25 1.25 -0.25 0.75 1.75 0.25 -0.25 0.75 0.75 -0.25 -0.75 1.75 -1.25 -0.75 -0.25 -0.25 -1.25 0.25 1.75 -0.25 -0.25 0.25 0.75 -0.75 -0.75 1.75 -1.25 1.25 0.25 1.25 -0.75 0.75 -1.25 1.25 1.25 1.25 0.25 -0.25 1.25 -2.75 -1.75 -0.25 0.25 -0.25 -0.25 0.25 
1.0 1.0 -0.5 -0.5 0.0 -2.5 -1.5 1.0 0.0 1.0 0.5 0.5 2.5 -1.5 0.0 1.0 1.0 0.0 1.0 0.5 1.5 0.0 1.0 -0.5 0.5 0.0 0.0 2.5 0.0 0.5 -1.5 -0.5 -1.0 -0.5 3.0 0.0 0.5 0.5 0.0 0.5 0.0 2.0 0.0 0.0 1.0 1.0 0.5 0.0 1.5 1.0 -1.0 1.0 1.0 1.0 1.5 -1.0 0.5 0.5 -1.0 0.0 -0.5 -2.5 -0.5 
1.0 1.5 0.0 1.5 2.5 0.0 4.0 1.5 0.0 1.5 0.5 0.5 -1.5 1.0 0.5 1.0 1.0 0.0 0.5 1.0 -2.5 0.5 1.0 0.0 2.5 1.0 0.0 -1.5 0.5 1.0 1.0 4.0 2.5 -2.0 0.0 0.5 0.0 0.0 0.5 0.5 0.0 -2.5 0.0 0.0 1.5 1.0 -1.0 0.5 -3.0 1.0 -1.0 1.5 1.5 1.0 -2.5 0.5 0.0 0.5 -0.5 2.5 2.0 -0.5 4.5 
-1.0 -0.5 -1.5 -1.0 0.5 0.5 1.0 0.0 -0.5 1.0 0.0 0.5 1.5 0.0 -0.5 0.0 1.0 -0.5 0.5 2.5 0.0 -0.5 0.0 -0.5 0.5 0.0 2.5 0.0 -0.5 -0.5 -1.0 0.5 -0.5 2.0 0.5 -0.5 -1.0 0.0 0.0 0.5 1.5 0.0 -0.5 0.0 0.5 0.0 0.0 1.5 0.0 0.0 0.0 1.0 1.0 0.5 0.5 0.0 -1.5 -1.5 0.0 1.0 0.5 -2.0 0.0 
1.5 0.5 -0.5 -3.0 -1.5 1.5 1.0 1.0 0.5 0.5 -1.0 2.5 0.5 -0.5 0.5 1.0 0.0 1.5 0.5 0.5 -0.5 0.5 1.0 1.0 1.0 -1.0 0.5 -0.5 0.5 1.0 0.0 -0.5 -1.5 -0.5 0.0 0.5 -0.5 0.5 1.0 -0.5 -1.0 -0.5 0.0 0.0 0.0 1.0 1.5 -0.5 -1.0 0.5 -0.5 0.5 0.5 1.5 0.5 -1.0 0.5 -1.0 -0.5 -1.5 -2.0 0.0 0.5 
-2.0 -3.0 -5.0 -4.0 -6.0 -4.0 -2.0
zeroWeights-quarterLR-tenTheta.txt,0,7,0.25,0.00001,10.0,
